{"learner":{"attributes":{"scikit_learn":"{\"_estimator_type\": \"classifier\"}"},"feature_names":["EXT_SOURCE_MIN","CREDIT_TERM","CREDIT_INCOME_RATIO","EXT_SOURCE_1","ANNUITY_INCOME_RATIO","BUREAU_TOTAL_DEBT","AMT_ANNUITY","EXT_SOURCE_2","AGE_EMPLOYMENT_RATIO","AGE_YEARS","AMT_CREDIT","EXT_SOURCE_3","AMT_INCOME_TOTAL","BUREAU_AVG_OVERDUE","BUREAU_ACTIVE_RATIO","PREV_APPROVAL_RATE","BUREAU_MAX_OVERDUE_DAYS","NAME_INCOME_TYPE","PREV_REFUSED_COUNT","NAME_EDUCATION_TYPE","REGION_RATING_CLIENT","CODE_GENDER","DOCUMENTS_SUBMITTED","NAME_FAMILY_STATUS"],"feature_types":["float","float","float","float","float","float","float","float","float","float","float","float","float","float","float","float","float","int","float","int","int","int","int","int"],"gradient_booster":{"model":{"gbtree_model_param":{"num_parallel_tree":"1","num_trees":"300"},"iteration_indptr":[0,1,2,3,4,5,6,7,8,9,10,11,12,13,14,15,16,17,18,19,20,21,22,23,24,25,26,27,28,29,30,31,32,33,34,35,36,37,38,39,40,41,42,43,44,45,46,47,48,49,50,51,52,53,54,55,56,57,58,59,60,61,62,63,64,65,66,67,68,69,70,71,72,73,74,75,76,77,78,79,80,81,82,83,84,85,86,87,88,89,90,91,92,93,94,95,96,97,98,99,100,101,102,103,104,105,106,107,108,109,110,111,112,113,114,115,116,117,118,119,120,121,122,123,124,125,126,127,128,129,130,131,132,133,134,135,136,137,138,139,140,141,142,143,144,145,146,147,148,149,150,151,152,153,154,155,156,157,158,159,160,161,162,163,164,165,166,167,168,169,170,171,172,173,174,175,176,177,178,179,180,181,182,183,184,185,186,187,188,189,190,191,192,193,194,195,196,197,198,199,200,201,202,203,204,205,206,207,208,209,210,211,212,213,214,215,216,217,218,219,220,221,222,223,224,225,226,227,228,229,230,231,232,233,234,235,236,237,238,239,240,241,242,243,244,245,246,247,248,249,250,251,252,253,254,255,256,257,258,259,260,261,262,263,264,265,266,267,268,269,270,271,272,273,274,275,276,277,278,279,280,281,282,283,284,285,286,287,288,289,290,291,292,293,294,295,296,297,298,299,300],"tree_info":[0,0,0,0,0,0,0,0,0,0,0,0,0,0,0,0,0,0,0,0,0,0,0,0,0,0,0,0,0,0,0,0,0,0,0,0,0,0,0,0,0,0,0,0,0,0,0,0,0,0,0,0,0,0,0,0,0,0,0,0,0,0,0,0,0,0,0,0,0,0,0,0,0,0,0,0,0,0,0,0,0,0,0,0,0,0,0,0,0,0,0,0,0,0,0,0,0,0,0,0,0,0,0,0,0,0,0,0,0,0,0,0,0,0,0,0,0,0,0,0,0,0,0,0,0,0,0,0,0,0,0,0,0,0,0,0,0,0,0,0,0,0,0,0,0,0,0,0,0,0,0,0,0,0,0,0,0,0,0,0,0,0,0,0,0,0,0,0,0,0,0,0,0,0,0,0,0,0,0,0,0,0,0,0,0,0,0,0,0,0,0,0,0,0,0,0,0,0,0,0,0,0,0,0,0,0,0,0,0,0,0,0,0,0,0,0,0,0,0,0,0,0,0,0,0,0,0,0,0,0,0,0,0,0,0,0,0,0,0,0,0,0,0,0,0,0,0,0,0,0,0,0,0,0,0,0,0,0,0,0,0,0,0,0,0,0,0,0,0,0,0,0,0,0,0,0,0,0,0,0,0,0,0,0,0,0,0,0,0,0,0,0,0,0,0,0,0,0,0,0],"trees":[{"base_weights":[1.3299064E-1,4.3213454E-1,-1.8730295E0,6.300515E-1,-2.3266421E-1,-1.5504042E0,-2.430509E0,7.126637E-1,-1.8730393E-1,-9.351182E-2,-1.3687048E0,-1.2829305E0,-2.1786582E0,-2.679874E0,-1.8430053E0,7.646793E-1,-1.9871078E-1,-3.3620295E-1,1.0953628E0,5.6159496E-2,-1.0053152E0,-1.0574312E0,-2.0172887E0,-8.652113E-1,-1.6166073E0,-2.460666E0,-1.5095942E0,-3.169631E0,-2.4790785E0,6.633731E-2,-2.1091871E0,3.381398E-2,6.0969826E-2,-2.362114E-2,5.467942E-2,-4.6682574E-2,-3.5392698E-3,6.0011636E-2,-1.4236726E-2,1.7987058E-2,-1.33667635E-2,-4.0736746E-2,-8.690957E-2,-1.6527515E-2,-6.420458E-2,-1.393064E-1,-8.440421E-2,-2.2325916E-2,-6.0577948E-2,-9.2057824E-2,-5.937341E-2,-1.1507654E-1,-1.514815E-1,6.625611E-2,-9.5795795E-2,-1.3502024E-1,-1.6500299E-1,-1.04627624E-1,-1.3462064E-1,-1.2919419E-1,-8.4866695E-2],"categories":[],"categories_nodes":[],"categories_segments":[],"categories_sizes":[],"default_left":[0,0,0,0,0,0,0,0,0,0,0,0,0,0,0,0,0,0,0,0,0,0,0,0,0,0,0,0,0,0,0,0,0,0,0,0,0,0,0,0,0,0,0,0,0,0,0,0,0,0,0,0,0,0,0,0,0,0,0,0,0],"id":0,"left_children":[1,3,5,7,9,11,13,15,17,19,21,23,25,27,29,31,33,35,37,39,41,43,45,47,49,51,53,55,57,-1,59,-1,-1,-1,-1,-1,-1,-1,-1,-1,-1,-1,-1,-1,-1,-1,-1,-1,-1,-1,-1,-1,-1,-1,-1,-1,-1,-1,-1,-1,-1],"loss_changes":[9.013402E4,1.7198178E4,3.501961E3,6.8013203E3,4.740282E3,2.0724043E3,1.0416016E3,4.336703E3,1.766364E3,3.6459717E3,6.5847656E2,1.2062354E3,6.918047E2,4.8509375E2,1.8014321E3,3.4777578E3,1.747836E3,1.313817E3,1.3957117E2,2.2539153E3,5.2473486E2,3.6420142E2,2.6359766E2,5.577141E2,4.6184375E2,2.276748E2,1.2644653E3,8.007324E1,2.8789648E2,0E0,3.801748E2,0E0,0E0,0E0,0E0,0E0,0E0,0E0,0E0,0E0,0E0,0E0,0E0,0E0,0E0,0E0,0E0,0E0,0E0,0E0,0E0,0E0,0E0,0E0,0E0,0E0,0E0,0E0,0E0,0E0,0E0],"parents":[2147483647,0,0,1,1,2,2,3,3,4,4,5,5,6,6,7,7,8,8,9,9,10,10,11,11,12,12,13,13,14,14,15,15,16,16,17,17,18,18,19,19,20,20,21,21,22,22,23,23,24,24,25,25,26,26,27,27,28,28,30,30],"right_children":[2,4,6,8,10,12,14,16,18,20,22,24,26,28,30,32,34,36,38,40,42,44,46,48,50,52,54,56,58,-1,60,-1,-1,-1,-1,-1,-1,-1,-1,-1,-1,-1,-1,-1,-1,-1,-1,-1,-1,-1,-1,-1,-1,-1,-1,-1,-1,-1,-1,-1,-1],"split_conditions":[5.0599796E-1,1E0,6.664813E-1,6.511275E-1,6.480364E-1,6.594055E-1,3.3900023E-2,6.6585493E-1,8.5892606E-1,6.3303167E-1,7.1167034E-1,1.18732944E-1,3.3900023E-2,2E0,1E0,8.370882E-1,8.5892606E-1,3.3900023E-2,1E0,2.608559E-1,5.407123E1,2.1885908E-1,2E0,7E0,3.3900023E-2,5.7536987E1,1E0,7.2650677E-1,1.18732944E-1,6.633731E-2,1.0279689E0,3.381398E-2,6.0969826E-2,-2.362114E-2,5.467942E-2,-4.6682574E-2,-3.5392698E-3,6.0011636E-2,-1.4236726E-2,1.7987058E-2,-1.33667635E-2,-4.0736746E-2,-8.690957E-2,-1.6527515E-2,-6.420458E-2,-1.393064E-1,-8.440421E-2,-2.2325916E-2,-6.0577948E-2,-9.2057824E-2,-5.937341E-2,-1.1507654E-1,-1.514815E-1,6.625611E-2,-9.5795795E-2,-1.3502024E-1,-1.6500299E-1,-1.04627624E-1,-1.3462064E-1,-1.2919419E-1,-8.4866695E-2],"split_indices":[0,15,7,7,7,11,18,11,15,11,7,8,18,19,18,15,15,18,18,0,9,0,19,17,18,9,18,15,8,0,18,0,0,0,0,0,0,0,0,0,0,0,0,0,0,0,0,0,0,0,0,0,0,0,0,0,0,0,0,0,0],"split_type":[0,0,0,0,0,0,0,0,0,0,0,0,0,0,0,0,0,0,0,0,0,0,0,0,0,0,0,0,0,0,0,0,0,0,0,0,0,0,0,0,0,0,0,0,0,0,0,0,0,0,0,0,0,0,0,0,0,0,0,0,0],"sum_hessian":[1.5019881E5,1.3070802E5,1.9490797E4,1.0072213E5,2.998589E4,1.2348335E4,7.142463E3,9.147649E4,9.245641E3,2.6714717E4,3.2711746E3,8.663126E3,3.6852087E3,5.011697E3,2.130766E3,8.6537625E4,4.9388687E3,8.28465E3,9.6099E2,2.2948662E4,3.766054E3,2.2121382E3,1.0590365E3,3.8486804E3,4.814446E3,2.5906023E3,1.0946063E3,1.4529766E3,3.5587202E3,1.6476176E2,1.9660044E3,7.245452E4,1.4083103E4,4.0761624E3,8.6270636E2,2.5475837E3,5.737067E3,8.93245E2,6.7744995E1,1.1838646E4,1.1110016E4,2.9905024E3,7.7555145E2,5.264179E2,1.6857202E3,3.1527228E2,7.437642E2,1.7434032E3,2.105277E3,3.15847E3,1.6559757E3,2.0283362E3,5.622662E2,1.3694484E2,9.576615E2,3.20752E2,1.1322245E3,1.2694666E3,2.2892537E3,9.108715E2,1.0551328E3],"tree_param":{"num_deleted":"0","num_feature":"24","num_nodes":"61","size_leaf_vector":"1"}},{"base_weights":[1.18894525E-1,4.085542E-1,-1.7064108E0,6.0288596E-1,-2.2741114E-1,-1.5047169E0,-2.412375E0,6.692509E-1,-3.764889E-1,-9.260557E-2,-1.1994938E0,-1.2640746E0,-2.0773795E0,-2.1156404E0,-2.5999868E0,5.7151335E-1,1.1739576E0,-5.3079706E-1,8.553662E-1,3.9942816E-2,-1.0289395E0,-1.9087094E0,-9.466626E-1,-9.668619E-1,-1.7230024E0,-1.8227702E0,-2.4093916E0,-1.6217241E0,-2.3649342E0,-2.9495697E0,-2.4358273E0,3.222154E-2,-1.1744741E-2,5.913197E-2,-5.1316995E-2,-1.4176694E-2,-5.2758124E-2,1.7552486E-2,6.3896075E-2,1.1907881E-2,-1.9150013E-2,-3.787815E-2,-7.386809E-2,-7.367155E-2,-1.1336233E-1,1.6256029E-4,-5.468784E-2,-8.6335585E-2,-3.969399E-2,-7.497992E-2,-1.04566336E-1,-9.519204E-2,4.9305905E-2,-1.3647133E-1,-1.1084342E-1,-4.4935156E-2,-9.9718295E-2,-9.932106E-2,-1.354637E-1,-1.3798015E-1,-1.680235E-1,-1.3597713E-1,-1.04750335E-1],"categories":[],"categories_nodes":[],"categories_segments":[],"categories_sizes":[],"default_left":[0,0,0,0,0,0,0,0,0,0,0,0,0,0,0,0,0,0,0,0,0,0,0,0,0,0,0,0,0,0,0,0,0,0,0,0,0,0,0,0,0,0,0,0,0,0,0,0,0,0,0,0,0,0,0,0,0,0,0,0,0,0,0],"id":1,"left_children":[1,3,5,7,9,11,13,15,17,19,21,23,25,27,29,31,33,35,37,39,41,43,45,47,49,51,53,55,57,59,61,-1,-1,-1,-1,-1,-1,-1,-1,-1,-1,-1,-1,-1,-1,-1,-1,-1,-1,-1,-1,-1,-1,-1,-1,-1,-1,-1,-1,-1,-1,-1,-1],"loss_changes":[7.8932914E4,1.5923807E4,2.9077227E3,6.414629E3,3.9517124E3,2.189289E3,2.4734766E2,4.55859E3,1.1910786E3,3.2871106E3,6.5674414E2,1.5262812E3,3.933086E2,2.1344678E2,1.5224805E2,4.5533145E3,2.8763477E2,7.214945E2,1.4822226E2,1.9451853E3,3.9856104E2,1.4713745E2,3.7858643E2,8.9258057E2,3.590713E2,6.0916016E2,1.1957031E2,1.5854321E2,1.4718457E2,5.965039E1,1.7765723E2,0E0,0E0,0E0,0E0,0E0,0E0,0E0,0E0,0E0,0E0,0E0,0E0,0E0,0E0,0E0,0E0,0E0,0E0,0E0,0E0,0E0,0E0,0E0,0E0,0E0,0E0,0E0,0E0,0E0,0E0,0E0,0E0],"parents":[2147483647,0,0,1,1,2,2,3,3,4,4,5,5,6,6,7,7,8,8,9,9,10,10,11,11,12,12,13,13,14,14,15,15,16,16,17,17,18,18,19,19,20,20,21,21,22,22,23,23,24,24,25,25,26,26,27,27,28,28,29,29,30,30],"right_children":[2,4,6,8,10,12,14,16,18,20,22,24,26,28,30,32,34,36,38,40,42,44,46,48,50,52,54,56,58,60,62,-1,-1,-1,-1,-1,-1,-1,-1,-1,-1,-1,-1,-1,-1,-1,-1,-1,-1,-1,-1,-1,-1,-1,-1,-1,-1,-1,-1,-1,-1,-1,-1],"split_conditions":[5.0599796E-1,1E0,7.006131E-1,6.744253E-1,6.4186233E-1,6.6585493E-1,7.5E-1,8.370882E-1,8.370882E-1,6.528965E-1,2E0,9.225E3,1E0,7.19525E-1,2E0,6.2630427E-1,5E0,7.2373325E-1,9.1544276E-1,3.3125088E-1,1.8034605E4,6.873466E-1,4E0,4.2963177E-2,1E0,9.1544276E-1,2.2068732E4,3E0,5.7796913E-1,7.503444E-1,2.92455E4,3.222154E-2,-1.1744741E-2,5.913197E-2,-5.1316995E-2,-1.4176694E-2,-5.2758124E-2,1.7552486E-2,6.3896075E-2,1.1907881E-2,-1.9150013E-2,-3.787815E-2,-7.386809E-2,-7.367155E-2,-1.1336233E-1,1.6256029E-4,-5.468784E-2,-8.6335585E-2,-3.969399E-2,-7.497992E-2,-1.04566336E-1,-9.519204E-2,4.9305905E-2,-1.3647133E-1,-1.1084342E-1,-4.4935156E-2,-9.9718295E-2,-9.932106E-2,-1.354637E-1,-1.3798015E-1,-1.680235E-1,-1.3597713E-1,-1.04750335E-1],"split_indices":[0,15,7,7,7,11,15,15,15,11,19,5,15,7,19,11,23,7,15,0,5,7,19,14,15,15,6,17,11,7,6,0,0,0,0,0,0,0,0,0,0,0,0,0,0,0,0,0,0,0,0,0,0,0,0,0,0,0,0,0,0,0,0],"split_type":[0,0,0,0,0,0,0,0,0,0,0,0,0,0,0,0,0,0,0,0,0,0,0,0,0,0,0,0,0,0,0,0,0,0,0,0,0,0,0,0,0,0,0,0,0,0,0,0,0,0,0,0,0,0,0,0,0,0,0,0,0,0,0],"sum_hessian":[1.49289E5,1.2884347E5,2.0445533E4,9.868758E4,3.0155889E4,1.5904694E4,4.540839E3,9.2424945E4,6.2626333E3,2.6484229E4,3.6716597E3,1.1201039E4,4.7036553E3,1.7636521E3,2.7771868E3,7.743217E4,1.4992775E4,5.5659805E3,6.966528E2,2.320085E4,3.283379E3,9.63211E2,2.7084487E3,6.800184E3,4.4008555E3,2.6658174E3,2.0378378E3,5.940967E2,1.1695554E3,8.819918E2,1.895195E3,7.101135E4,6.420821E3,1.4934311E4,5.8464226E1,3.7834465E3,1.7825342E3,3.1843445E2,3.782183E2,1.5797632E4,7.4032183E3,2.047164E3,1.2362148E3,4.3735443E2,5.2585657E2,3.6329807E2,2.3451506E3,1.2593447E3,5.540839E3,2.7424917E3,1.6583638E3,2.5913477E3,7.446959E1,7.604878E2,1.27735E3,2.0321632E2,3.9088037E2,5.603563E2,6.091991E2,6.084227E2,2.7356912E2,1.0304331E3,8.647619E2],"tree_param":{"num_deleted":"0","num_feature":"24","num_nodes":"63","size_leaf_vector":"1"}},{"base_weights":[1.1728457E-1,-3.390142E-1,5.591366E-1,2.4966891E-1,-6.251074E-1,6.5609805E-2,2.6211888E-1,-3.1106642E-1,3.7172058E-1,-2.0962958E-1,-9.9529916E-1,-7.1134883E-1,5.783702E-1,-7.875556E-1,-1.3692124E-1,9.260874E-1,2.1700682E-1,-9.754671E-2,-1.3645808E0,-1.6886E0,-7.268196E-1,-1.3165406E0,-3.9792237E-1,6.588425E-2,3.0882698E-1,-2.8511195E-2,-7.235812E-2,2.396341E-2,-2.5079047E-2,3.2343898E-2,6.081447E-2,1.9222833E-2,-6.5080146E-3,-3.667553E-2,1.7784713E-3,-4.671087E-2,-9.276884E-2,-1.00976124E-1,-7.298087E-2,-1.6645497E-2,-5.8954943E-2,-5.3397845E-2,-9.962606E-2,-1.4205477E-2,-8.43871E-2,-3.5226673E-2,2.9289981E-2],"categories":[],"categories_nodes":[],"categories_segments":[],"categories_sizes":[],"default_left":[0,0,0,0,0,0,0,0,0,0,0,0,0,0,0,0,0,0,0,0,0,0,0,0,0,0,0,0,0,0,0,0,0,0,0,0,0,0,0,0,0,0,0,0,0,0,0],"id":2,"left_children":[1,3,5,7,9,-1,11,13,15,17,19,21,23,25,27,29,31,33,35,37,39,41,43,-1,45,-1,-1,-1,-1,-1,-1,-1,-1,-1,-1,-1,-1,-1,-1,-1,-1,-1,-1,-1,-1,-1,-1],"loss_changes":[3.0051955E4,1.2350077E4,1.6937482E4,1.6414615E3,7.589703E3,0E0,1.6719703E4,3.5566815E2,1.6891013E3,3.0099292E3,4.8561133E3,2.5255425E3,8.1683164E3,1.6365552E2,7.060663E2,3.4740186E2,8.9529736E2,1.7944836E3,4.327207E2,5.489824E2,3.3512305E3,7.613237E2,1.2876663E3,0E0,8.432117E3,0E0,0E0,0E0,0E0,0E0,0E0,0E0,0E0,0E0,0E0,0E0,0E0,0E0,0E0,0E0,0E0,0E0,0E0,0E0,0E0,0E0,0E0],"parents":[2147483647,0,0,1,1,2,2,3,3,4,4,6,6,7,7,8,8,9,9,10,10,11,11,12,12,13,13,14,14,15,15,16,16,17,17,18,18,19,19,20,20,21,21,22,22,24,24],"right_children":[2,4,6,8,10,-1,12,14,16,18,20,22,24,26,28,30,32,34,36,38,40,42,44,-1,46,-1,-1,-1,-1,-1,-1,-1,-1,-1,-1,-1,-1,-1,-1,-1,-1,-1,-1,-1,-1,-1,-1],"split_conditions":[3.3900023E-2,5.0599796E-1,1E0,2E0,1.18732944E-1,6.5609805E-2,1.0279689E0,2E0,4E0,6.5089107E-1,1.190823E-1,3.3512467E-1,2E0,1.457566E-1,7E0,3E0,1E0,2E0,7E0,3.3512467E-1,2.0967038E-1,5.1454796E1,6.1856294E-1,6.588425E-2,2.0049586E0,-2.8511195E-2,-7.235812E-2,2.396341E-2,-2.5079047E-2,3.2343898E-2,6.081447E-2,1.9222833E-2,-6.5080146E-3,-3.667553E-2,1.7784713E-3,-4.671087E-2,-9.276884E-2,-1.00976124E-1,-7.298087E-2,-1.6645497E-2,-5.8954943E-2,-5.3397845E-2,-9.962606E-2,-1.4205477E-2,-8.43871E-2,-3.5226673E-2,2.9289981E-2],"split_indices":[18,3,18,19,8,0,18,17,19,3,8,14,18,8,17,19,21,19,17,14,8,9,3,0,18,0,0,0,0,0,0,0,0,0,0,0,0,0,0,0,0,0,0,0,0,0,0],"split_type":[0,0,0,0,0,0,0,0,0,0,0,0,0,0,0,0,0,0,0,0,0,0,0,0,0,0,0,0,0,0,0,0,0,0,0,0,0,0,0,0,0,0,0,0,0,0,0],"sum_hessian":[1.4905306E5,7.332788E4,7.572517E4,2.3981725E4,4.934616E4,2.1418145E4,5.4307027E4,4.286579E3,1.9695145E4,2.325166E4,2.60945E4,1.3316292E4,4.0990734E4,1.146379E3,3.1402E3,4.296181E3,1.5398964E4,2.1195787E4,2.0558726E3,7.282765E3,1.8811734E4,4.5423384E3,8.773953E3,1.0950727E4,3.0040008E4,8.6367426E2,2.8270483E2,1.1673453E3,1.9728545E3,2.191205E3,2.1049758E3,1.0388264E4,5.0107007E3,3.6678901E3,1.7527898E4,1.0969211E3,9.589513E2,2.975212E3,4.307553E3,1.0055606E4,8.756128E3,3.322945E3,1.2193934E3,8.0636426E3,7.103102E2,6.4478184E3,2.359219E4],"tree_param":{"num_deleted":"0","num_feature":"24","num_nodes":"47","size_leaf_vector":"1"}},{"base_weights":[1.1668394E-1,3.8918716E-1,-1.4925898E0,3.1541374E-2,7.018695E-1,-1.2401099E0,-1.9054164E0,1.4522776E-1,-8.600215E-1,6.453735E-2,4.560393E-1,-9.716207E-1,-1.6047342E0,-2.078474E0,-1.4851179E0,2.6065823E-1,-5.873945E-1,-5.859677E-1,-1.3318648E0,-3.9949337E-1,7.0338744E-1,-8.393303E-1,-1.7078028E0,-1.7901374E0,-1.1627554E0,-2.4754343E0,-1.9168934E0,6.544793E-2,-1.6703665E0,1.580127E-2,-4.48354E-2,-9.9751E-3,-4.4754878E-2,-2.4942257E-2,-9.7526014E-2,-6.1701696E-2,-1.08512424E-1,-2.772027E-3,-5.2059866E-2,6.476964E-2,2.390556E-2,-3.0814147E-2,-6.409029E-2,-9.843193E-2,-5.8831282E-2,-1.1684473E-1,-8.213594E-2,6.601914E-2,-7.604664E-2,-1.2481093E-1,-7.66754E-3,-4.756685E-2,-9.913135E-2,-7.222466E-2,-1.0532166E-1],"categories":[],"categories_nodes":[],"categories_segments":[],"categories_sizes":[],"default_left":[0,0,0,0,0,0,0,0,0,0,0,0,0,0,0,0,0,0,0,0,0,0,0,0,0,0,0,0,0,0,0,0,0,0,0,0,0,0,0,0,0,0,0,0,0,0,0,0,0,0,0,0,0,0,0],"id":3,"left_children":[1,3,5,7,9,11,13,15,17,-1,19,21,23,25,27,29,31,33,35,37,39,41,43,45,47,49,51,-1,53,-1,-1,-1,-1,-1,-1,-1,-1,-1,-1,-1,-1,-1,-1,-1,-1,-1,-1,-1,-1,-1,-1,-1,-1,-1,-1],"loss_changes":[6.513849E4,1.4205367E4,2.239629E3,6.0060596E3,9.810613E3,1.3053691E3,5.905117E2,4.444482E3,8.657783E2,0E0,1.0118683E4,7.4759766E2,4.617129E2,3.658828E2,1.2360103E3,2.909608E3,8.536389E2,5.0320886E2,1.9920508E2,2.3676733E3,4.946127E3,6.428345E2,1.5986694E2,3.1739355E2,1.4921621E3,8.012891E1,2.5904492E2,0E0,2.1718994E2,0E0,0E0,0E0,0E0,0E0,0E0,0E0,0E0,0E0,0E0,0E0,0E0,0E0,0E0,0E0,0E0,0E0,0E0,0E0,0E0,0E0,0E0,0E0,0E0,0E0,0E0],"parents":[2147483647,0,0,1,1,2,2,3,3,4,4,5,5,6,6,7,7,8,8,10,10,11,11,12,12,13,13,14,14,15,15,16,16,17,17,18,18,19,19,20,20,21,21,22,22,23,23,24,24,25,25,26,26,28,28],"right_children":[2,4,6,8,10,12,14,16,18,-1,20,22,24,26,28,30,32,34,36,38,40,42,44,46,48,50,52,-1,54,-1,-1,-1,-1,-1,-1,-1,-1,-1,-1,-1,-1,-1,-1,-1,-1,-1,-1,-1,-1,-1,-1,-1,-1,-1,-1],"split_conditions":[5.0599796E-1,3.3900023E-2,6.6481686E-1,6.480364E-1,1E0,6.127042E-1,3.3900023E-2,6.313545E-1,7.058975E-1,6.453735E-2,1.0279689E0,5.3527623E-1,3.3900023E-2,2E0,1E0,6.3764894E-1,1.18732944E-1,6.643243E-1,6.441851E-1,3.1703177E-1,2E0,5.90472E3,3.3900023E-2,2E0,1E0,1.5117644E1,4E0,6.544793E-2,6.380435E-1,1.580127E-2,-4.48354E-2,-9.9751E-3,-4.4754878E-2,-2.4942257E-2,-9.7526014E-2,-6.1701696E-2,-1.08512424E-1,-2.772027E-3,-5.2059866E-2,6.476964E-2,2.390556E-2,-3.0814147E-2,-6.409029E-2,-9.843193E-2,-5.8831282E-2,-1.1684473E-1,-8.213594E-2,6.601914E-2,-7.604664E-2,-1.2481093E-1,-7.66754E-3,-4.756685E-2,-9.913135E-2,-7.222466E-2,-1.0532166E-1],"split_indices":[0,18,7,7,18,11,18,11,7,0,18,0,18,19,18,3,8,3,3,0,18,5,18,19,18,2,19,0,11,0,0,0,0,0,0,0,0,0,0,0,0,0,0,0,0,0,0,0,0,0,0,0,0,0,0],"split_type":[0,0,0,0,0,0,0,0,0,0,0,0,0,0,0,0,0,0,0,0,0,0,0,0,0,0,0,0,0,0,0,0,0,0,0,0,0,0,0,0,0,0,0,0,0,0,0,0,0,0,0,0,0,0,0],"sum_hessian":[1.4853516E5,1.2702619E5,2.1508973E4,5.925335E4,6.7772836E4,1.334893E4,8.1600435E3,5.255297E4,6.700381E3,1.995856E4,4.7814273E4,7.6900596E3,5.65887E3,5.777299E3,2.3827446E3,4.5400414E4,7.1525547E3,4.239979E3,2.4604016E3,1.0723388E4,3.7090887E4,6.520483E3,1.1695767E3,3.9844182E3,1.674452E3,1.6671769E3,4.110122E3,1.4777722E2,2.2349673E3,4.332836E4,2.0720542E3,3.1647273E3,3.9878274E3,3.9867996E3,2.5317966E2,2.2055127E3,2.5488899E2,6.981375E3,3.742013E3,1.0222456E4,2.6868432E4,4.336759E3,2.183724E3,7.8258185E2,3.8699478E2,8.429969E2,3.1414214E3,2.1074345E2,1.4637085E3,1.6523125E3,1.486438E1,2.6296268E2,3.8471594E3,1.4751718E3,7.597956E2],"tree_param":{"num_deleted":"0","num_feature":"24","num_nodes":"55","size_leaf_vector":"1"}},{"base_weights":[1.0882293E-1,3.6573496E-1,-8.099604E-1,5.0495064E-1,-5.05573E-1,-3.1323075E-1,-1.2618606E0,1.813487E-1,7.7324337E-1,-2.4199004E-1,-1.0110093E0,-7.484728E-1,8.192199E-2,-9.911762E-1,-1.775881E0,2.7338782E-1,-5.249893E-1,6.3585445E-2,5.688897E-1,1.1771056E-1,-6.5125746E-1,-5.5165786E-1,-1.3385487E0,-5.32246E-1,-1.2586646E0,6.393844E-2,-2.2620861E-1,-7.4938357E-1,-1.5776219E0,-1.9211082E0,-1.4127451E0,2.1918459E-2,-4.8507093E-3,1.7340967E-2,-3.9971393E-2,-7.7718804E-3,3.8486008E-2,-1.955032E-2,2.2159545E-2,-2.5328947E-2,-7.2976045E-2,-5.910547E-3,-4.3743335E-2,-9.359553E-2,-5.4220904E-2,-1.0768228E-2,-4.3151785E-2,-8.492586E-2,-5.2224416E-2,-4.8359554E-2,3.4714043E-3,-5.016876E-2,-1.4331231E-2,-9.729463E-2,-6.502594E-2,-8.198218E-2,-1.04756795E-1,6.440597E-2,-8.5608535E-2],"categories":[],"categories_nodes":[],"categories_segments":[],"categories_sizes":[],"default_left":[0,0,0,0,0,0,0,0,0,0,0,0,0,0,0,0,0,0,0,0,0,0,0,0,0,0,0,0,0,0,0,0,0,0,0,0,0,0,0,0,0,0,0,0,0,0,0,0,0,0,0,0,0,0,0,0,0,0,0],"id":4,"left_children":[1,3,5,7,9,11,13,15,17,19,21,23,25,27,29,31,33,-1,35,37,39,41,43,45,47,-1,49,51,53,55,57,-1,-1,-1,-1,-1,-1,-1,-1,-1,-1,-1,-1,-1,-1,-1,-1,-1,-1,-1,-1,-1,-1,-1,-1,-1,-1,-1,-1],"loss_changes":[3.485806E4,1.3998798E4,7.2432695E3,8.638996E3,2.117932E3,2.6441438E3,2.349246E3,2.9324697E3,5.540836E3,1.5386228E3,8.191255E2,8.0639453E2,2.9722786E3,1.5686182E3,3.0460547E2,2.438679E3,1.2444662E3,0E0,5.6130625E3,9.213186E2,5.7095703E2,3.1789655E2,4.2903955E2,5.385884E2,2.0330469E2,0E0,1.4041938E3,9.2127686E2,3.2719238E2,2.003252E2,1.3515522E3,0E0,0E0,0E0,0E0,0E0,0E0,0E0,0E0,0E0,0E0,0E0,0E0,0E0,0E0,0E0,0E0,0E0,0E0,0E0,0E0,0E0,0E0,0E0,0E0,0E0,0E0,0E0,0E0],"parents":[2147483647,0,0,1,1,2,2,3,3,4,4,5,5,6,6,7,7,8,8,9,9,10,10,11,11,12,12,13,13,14,14,15,15,16,16,18,18,19,19,20,20,21,21,22,22,23,23,24,24,26,26,27,27,28,28,29,29,30,30],"right_children":[2,4,6,8,10,12,14,16,18,20,22,24,26,28,30,32,34,-1,36,38,40,42,44,46,48,-1,50,52,54,56,58,-1,-1,-1,-1,-1,-1,-1,-1,-1,-1,-1,-1,-1,-1,-1,-1,-1,-1,-1,-1,-1,-1,-1,-1,-1,-1,-1,-1],"split_conditions":[6.168027E-1,6.1782616E-1,5.3527623E-1,3.3900023E-2,7.1657026E-1,3.3900023E-2,7.006131E-1,5.5457535E1,1E0,1.8034605E4,1.18732944E-1,7.0236236E-1,1E0,6.690567E-1,3.3900023E-2,4.918132E-1,1.18732944E-1,6.3585445E-2,1.0279689E0,4.2963177E-2,5.772329E1,7E0,1.190823E-1,1.18732944E-1,2E0,6.393844E-2,1.0279689E0,3.3900023E-2,2.49615E4,1.1727792E-1,1E0,2.1918459E-2,-4.8507093E-3,1.7340967E-2,-3.9971393E-2,-7.7718804E-3,3.8486008E-2,-1.955032E-2,2.2159545E-2,-2.5328947E-2,-7.2976045E-2,-5.910547E-3,-4.3743335E-2,-9.359553E-2,-5.4220904E-2,-1.0768228E-2,-4.3151785E-2,-8.492586E-2,-5.2224416E-2,-4.8359554E-2,3.4714043E-3,-5.016876E-2,-1.4331231E-2,-9.729463E-2,-6.502594E-2,-8.198218E-2,-1.04756795E-1,6.440597E-2,-8.5608535E-2],"split_indices":[7,11,11,18,11,18,7,9,18,5,8,7,18,11,18,7,8,0,18,14,9,17,8,8,19,0,18,18,6,8,18,0,0,0,0,0,0,0,0,0,0,0,0,0,0,0,0,0,0,0,0,0,0,0,0,0,0,0,0],"split_type":[0,0,0,0,0,0,0,0,0,0,0,0,0,0,0,0,0,0,0,0,0,0,0,0,0,0,0,0,0,0,0,0,0,0,0,0,0,0,0,0,0,0,0,0,0,0,0,0,0,0,0,0,0,0,0,0,0,0,0],"sum_hessian":[1.476723E5,1.1540353E5,3.2268762E4,9.950522E4,1.5898311E4,1.5372724E4,1.689604E4,4.5104266E4,5.4400957E4,1.0450104E4,5.448206E3,7.3148584E3,8.0578647E3,1.1069659E4,5.8263804E3,3.9905066E4,5.199202E3,1.5816259E4,3.8584695E4,5.562232E3,4.887872E3,2.2689055E3,3.1793008E3,5.138942E3,2.1759165E3,1.6491305E3,6.4087344E3,7.839639E3,3.2300198E3,4.158858E3,1.6675225E3,2.760797E4,1.2297093E4,1.2447478E3,3.9544543E3,8.375899E3,3.0208797E4,2.1701482E3,3.392084E3,4.14716E3,7.4071173E2,9.697563E2,1.2991492E3,1.0239337E3,2.155367E3,2.625492E3,2.5134502E3,7.1028296E2,1.4656335E3,1.8270793E3,4.581655E3,5.0607876E3,2.7788513E3,1.3842828E3,1.8457368E3,1.5929364E3,2.5659214E3,1.660873E2,1.5014352E3],"tree_param":{"num_deleted":"0","num_feature":"24","num_nodes":"59","size_leaf_vector":"1"}},{"base_weights":[1.03110686E-1,3.8644373E-1,-6.5046465E-1,4.6680506E-2,7.009509E-1,-1.0379059E0,-1.2341954E-1,1.7877932E-1,-6.3911265E-1,6.290788E-2,4.7455883E-1,-4.3745777E-1,-1.2368234E0,6.3630156E-2,-4.777574E-1,2.4049293E-1,-1.0838879E0,1.8468705E-1,-9.372789E-1,-3.205279E-1,7.130944E-1,-2.4224293E-1,-9.4520175E-1,-1.0365224E0,-1.6492265E0,-1.2272391E0,-9.691851E-2,2.09233E-2,-1.5076891E-3,-3.7147176E-2,-8.917226E-2,3.7490737E-2,-3.7575126E-2,-6.0727883E-2,-1.0911795E-2,-8.038707E-3,-6.326321E-2,6.337711E-2,2.5024176E-2,-1.0110923E-2,-1.2722094E-1,-6.1508995E-2,-2.0440752E-2,-3.5330117E-2,-6.3971624E-2,-9.754888E-2,-7.524606E-2,-5.5134226E-2,-1.0478649E-1,6.474361E-2,-2.1193067E-2],"categories":[],"categories_nodes":[],"categories_segments":[],"categories_sizes":[],"default_left":[0,0,0,0,0,0,0,0,0,0,0,0,0,0,0,0,0,0,0,0,0,0,0,0,0,0,0,0,0,0,0,0,0,0,0,0,0,0,0,0,0,0,0,0,0,0,0,0,0,0,0],"id":5,"left_children":[1,3,5,7,9,11,13,15,17,-1,19,21,23,-1,25,27,29,31,33,35,37,39,41,43,45,47,49,-1,-1,-1,-1,-1,-1,-1,-1,-1,-1,-1,-1,-1,-1,-1,-1,-1,-1,-1,-1,-1,-1,-1,-1],"loss_changes":[3.133681E4,1.1397826E4,8.189082E3,4.6451675E3,6.98675E3,2.7600664E3,8.405962E3,3.3504834E3,2.0343711E3,0E0,7.4706104E3,5.700117E2,1.4323887E3,0E0,3.8683271E3,1.974459E3,4.7655396E2,1.1654055E3,1.2121133E3,1.3718184E3,3.5710928E3,3.825042E2,2.4366003E2,9.3579004E2,2.44125E2,4.9164795E2,4.0902515E3,0E0,0E0,0E0,0E0,0E0,0E0,0E0,0E0,0E0,0E0,0E0,0E0,0E0,0E0,0E0,0E0,0E0,0E0,0E0,0E0,0E0,0E0,0E0,0E0],"parents":[2147483647,0,0,1,1,2,2,3,3,4,4,5,5,6,6,7,7,8,8,10,10,11,11,12,12,14,14,15,15,16,16,17,17,18,18,19,19,20,20,21,21,22,22,23,23,24,24,25,25,26,26],"right_children":[2,4,6,8,10,12,14,16,18,-1,20,22,24,-1,26,28,30,32,34,36,38,40,42,44,46,48,50,-1,-1,-1,-1,-1,-1,-1,-1,-1,-1,-1,-1,-1,-1,-1,-1,-1,-1,-1,-1,-1,-1,-1,-1],"split_conditions":[5.924167E-1,3.3900023E-2,3.3900023E-2,5.3728767E1,1E0,5.0599796E-1,1E0,6.3125896E-1,1.18732944E-1,6.290788E-2,1.0279689E0,6.905336E-1,6.972125E-1,6.3630156E-2,1.0279689E0,4.2963395E-1,7.3470956E-1,7E0,1.190823E-1,5.4907658E1,2E0,2E0,4.011507E1,1.18732944E-1,2E0,6.441851E-1,2E0,2.09233E-2,-1.5076891E-3,-3.7147176E-2,-8.917226E-2,3.7490737E-2,-3.7575126E-2,-6.0727883E-2,-1.0911795E-2,-8.038707E-3,-6.326321E-2,6.337711E-2,2.5024176E-2,-1.0110923E-2,-1.2722094E-1,-6.1508995E-2,-2.0440752E-2,-3.5330117E-2,-6.3971624E-2,-9.754888E-2,-7.524606E-2,-5.5134226E-2,-1.0478649E-1,6.474361E-2,-2.1193067E-2],"split_indices":[7,18,18,9,18,3,18,3,8,0,18,7,7,0,18,7,3,17,8,9,18,22,9,8,19,3,18,0,0,0,0,0,0,0,0,0,0,0,0,0,0,0,0,0,0,0,0,0,0,0,0],"split_type":[0,0,0,0,0,0,0,0,0,0,0,0,0,0,0,0,0,0,0,0,0,0,0,0,0,0,0,0,0,0,0,0,0,0,0,0,0,0,0,0,0,0,0,0,0,0,0,0,0,0,0],"sum_hessian":[1.4676566E5,1.0666261E5,4.0103055E4,5.127317E4,5.5389434E4,2.3111998E4,1.6991057E4,4.2992594E4,8.280578E3,1.6001428E4,3.9388008E4,5.752083E3,1.7359916E4,3.4390952E3,1.3551961E4,4.0989992E4,2.0026006E3,2.2006929E3,6.079885E3,9.089742E3,3.0298266E4,4.15577E3,1.5963126E3,1.1687095E4,5.672821E3,4.565313E3,8.986647E3,2.4728422E4,1.6261571E4,1.3477885E3,6.5481213E2,1.3724296E3,8.2826337E2,4.3873413E3,1.6925436E3,7.7759995E3,1.3137422E3,8.396603E3,2.1901664E4,4.085824E3,6.9946236E1,1.0416163E3,5.546962E2,4.9576E3,6.7294946E3,1.8311868E3,3.8416343E3,3.9946846E3,5.7062836E2,1.7089048E3,7.277743E3],"tree_param":{"num_deleted":"0","num_feature":"24","num_nodes":"51","size_leaf_vector":"1"}},{"base_weights":[1.01882614E-1,3.5247713E-1,-1.258643E0,4.0383372E-2,6.4114547E-1,-1.1001914E0,-1.6038294E0,3.348213E-1,-2.1013762E-1,6.2128693E-2,4.0806922E-1,-9.640092E-1,-1.5903232E0,-1.529708E0,-2.2242644E0,4.0725946E-1,-3.209267E-1,-8.356706E-1,-6.843222E-2,-3.2828727E-1,6.398691E-1,-7.4604774E-1,-1.2869155E0,-1.7071702E0,-1.3217183E0,-1.9132031E0,-1.4105862E0,-1.8655021E0,-2.4725E0,2.557425E-2,-2.3792728E-3,-3.7593357E-3,-3.700852E-2,-5.786041E-2,-2.7267009E-2,4.1172978E-2,-1.294964E-2,-1.0101575E-3,-4.565122E-2,6.260482E-2,2.1018762E-2,-3.0435711E-2,-7.319233E-2,-7.965281E-2,-5.580283E-2,-8.81892E-2,-4.838166E-2,6.2018365E-2,-7.181983E-2,-1.02667056E-1,-7.014273E-2,-1.6498832E-2,-7.427942E-2,-8.654776E-2,-1.4267413E-1,-1.3081007E-1,-1.0326942E-1],"categories":[],"categories_nodes":[],"categories_segments":[],"categories_sizes":[],"default_left":[0,0,0,0,0,0,0,0,0,0,0,0,0,0,0,0,0,0,0,0,0,0,0,0,0,0,0,0,0,0,0,0,0,0,0,0,0,0,0,0,0,0,0,0,0,0,0,0,0,0,0,0,0,0,0,0,0],"id":6,"left_children":[1,3,5,7,9,11,13,15,17,-1,19,21,23,25,27,29,31,33,35,37,39,41,43,45,47,49,51,53,55,-1,-1,-1,-1,-1,-1,-1,-1,-1,-1,-1,-1,-1,-1,-1,-1,-1,-1,-1,-1,-1,-1,-1,-1,-1,-1,-1,-1],"loss_changes":[4.980676E4,1.1114014E4,1.2410469E3,4.3725728E3,8.983119E3,1.0381738E3,3.2525E2,1.2945737E3,2.8389539E3,0E0,7.8840947E3,8.5715625E2,1.0399707E2,2.8908203E2,6.3112793E1,1.1633962E3,2.7928586E2,5.515791E2,4.438483E3,1.9923174E3,4.72033E3,7.1689575E2,2.5515234E2,9.6921875E1,3.046128E2,1.0518262E2,3.9479395E2,3.6942993E1,2.071167E1,0E0,0E0,0E0,0E0,0E0,0E0,0E0,0E0,0E0,0E0,0E0,0E0,0E0,0E0,0E0,0E0,0E0,0E0,0E0,0E0,0E0,0E0,0E0,0E0,0E0,0E0,0E0,0E0],"parents":[2147483647,0,0,1,1,2,2,3,3,4,4,5,5,6,6,7,7,8,8,10,10,11,11,12,12,13,13,14,14,15,15,16,16,17,17,18,18,19,19,20,20,21,21,22,22,23,23,24,24,25,25,26,26,27,27,28,28],"right_children":[2,4,6,8,10,12,14,16,18,-1,20,22,24,26,28,30,32,34,36,38,40,42,44,46,48,50,52,54,56,-1,-1,-1,-1,-1,-1,-1,-1,-1,-1,-1,-1,-1,-1,-1,-1,-1,-1,-1,-1,-1,-1,-1,-1,-1,-1,-1,-1],"split_conditions":[5.0599796E-1,3.3900023E-2,6.6585493E-1,2.608559E-1,1E0,7.006131E-1,9.516737E-2,6.3303167E-1,2E0,6.2128693E-2,1.0279689E0,9.225E3,3.3900023E-2,2E0,6.27883E-1,5.497549E-1,5.90472E3,1.5934545E-1,4E0,3.217353E-1,2E0,5.3527623E-1,3.3512467E-1,4E0,1E0,2.47E-1,4E0,3.0571112E-1,1.1538409E5,2.557425E-2,-2.3792728E-3,-3.7593357E-3,-3.700852E-2,-5.786041E-2,-2.7267009E-2,4.1172978E-2,-1.294964E-2,-1.0101575E-3,-4.565122E-2,6.260482E-2,2.1018762E-2,-3.0435711E-2,-7.319233E-2,-7.965281E-2,-5.580283E-2,-8.81892E-2,-4.838166E-2,6.2018365E-2,-7.181983E-2,-1.02667056E-1,-7.014273E-2,-1.6498832E-2,-7.427942E-2,-8.654776E-2,-1.4267413E-1,-1.3081007E-1,-1.0326942E-1],"split_indices":[0,18,11,0,18,7,1,11,19,0,18,5,18,19,7,7,5,4,19,0,18,0,14,23,18,4,19,4,5,0,0,0,0,0,0,0,0,0,0,0,0,0,0,0,0,0,0,0,0,0,0,0,0,0,0,0,0],"split_type":[0,0,0,0,0,0,0,0,0,0,0,0,0,0,0,0,0,0,0,0,0,0,0,0,0,0,0,0,0,0,0,0,0,0,0,0,0,0,0,0,0,0,0,0,0,0,0,0,0,0,0,0,0,0,0,0,0],"sum_hessian":[1.4608417E5,1.2336279E5,2.2721389E4,5.927681E4,6.408598E4,1.557579E4,7.1455996E3,2.7249762E4,3.2027049E4,1.7897938E4,4.6188043E4,1.2191401E4,3.3843887E3,6.386134E3,7.5946576E2,2.4539365E4,2.7103967E3,5.914344E3,2.6112705E4,1.1058426E4,3.5129617E4,7.2804277E3,4.910973E3,2.3547026E3,1.029686E3,1.5099642E3,4.8761694E3,3.140706E2,4.4539514E2,1.9964477E4,4.574889E3,1.7095323E3,1.0008644E3,2.8049304E3,3.1094136E3,4.596432E3,2.1516271E4,7.2431934E3,3.8152322E3,9.269576E3,2.5860041E4,6.1127485E3,1.1676793E3,1.756106E3,3.1548672E3,2.185975E3,1.6872748E2,4.369334E1,9.859926E2,1.1822917E3,3.2767242E2,3.1682605E2,4.5593438E3,2.7884802E2,3.522256E1,3.2518567E2,1.2020948E2],"tree_param":{"num_deleted":"0","num_feature":"24","num_nodes":"57","size_leaf_vector":"1"}},{"base_weights":[9.389669E-2,3.356327E-1,-1.1799382E0,5.1109034E-1,-1.9382007E-1,-9.0068114E-1,-1.359131E0,4.0703452E-1,1.0872141E0,1.6802685E-1,-4.686217E-1,-1.4332907E0,-7.367101E-1,-1.2861841E0,-1.977963E0,5.8478105E-1,6.311663E-2,9.067073E-1,1.2380959E0,2.451297E-1,-5.5814856E-1,-1.7461841E-1,-7.532074E-1,-1.6394678E0,-8.0919516E-1,1.9688258E-1,-8.404795E-1,-1.1228571E0,-1.508738E0,-2.028548E0,-5.291566E-1,3.2188404E-2,-4.216014E-3,-2.7589967E-2,9.6654E-3,4.619636E-2,-6.2600195E-2,5.836097E-2,6.287975E-2,1.7323626E-2,-1.3433856E-2,-8.812309E-2,-2.24211E-2,-4.2256024E-2,-1.3942488E-3,-6.787404E-2,-2.9491598E-2,-7.086953E-2,-9.9710986E-2,-7.7307047E-3,-5.3220447E-2,-1.3925421E-2,4.1129094E-2,-3.666787E-2,-8.15766E-2,-7.216301E-2,-4.8566874E-2,-7.680769E-2,-2.991972E-2,-1.0272079E-1,-2.3374585E-2,-1.3548538E-1,2.3970457E-3],"categories":[],"categories_nodes":[],"categories_segments":[],"categories_sizes":[],"default_left":[0,0,0,0,0,0,0,0,0,0,0,0,0,0,0,0,0,0,0,0,0,0,0,0,0,0,0,0,0,0,0,0,0,0,0,0,0,0,0,0,0,0,0,0,0,0,0,0,0,0,0,0,0,0,0,0,0,0,0,0,0,0,0],"id":7,"left_children":[1,3,5,7,9,11,13,15,17,19,21,23,25,27,29,31,33,35,37,39,41,43,45,47,49,51,53,55,57,59,61,-1,-1,-1,-1,-1,-1,-1,-1,-1,-1,-1,-1,-1,-1,-1,-1,-1,-1,-1,-1,-1,-1,-1,-1,-1,-1,-1,-1,-1,-1,-1,-1],"loss_changes":[4.4602816E4,1.1309594E4,1.1548848E3,5.4813223E3,3.0133386E3,7.878423E2,6.3264844E2,4.7346934E3,3.798496E2,7.3253687E2,1.4409531E3,2.7214795E2,6.6949194E2,4.5594336E2,1.0753223E2,2.0154023E3,2.1129421E3,2.3804346E2,9.060547E0,6.1587976E2,1.6516742E2,8.335865E2,8.6319434E2,1.2295459E2,8.833334E1,2.060436E2,5.257134E2,3.5130273E2,1.320039E2,5.6847656E1,6.474553E1,0E0,0E0,0E0,0E0,0E0,0E0,0E0,0E0,0E0,0E0,0E0,0E0,0E0,0E0,0E0,0E0,0E0,0E0,0E0,0E0,0E0,0E0,0E0,0E0,0E0,0E0,0E0,0E0,0E0,0E0,0E0,0E0],"parents":[2147483647,0,0,1,1,2,2,3,3,4,4,5,5,6,6,7,7,8,8,9,9,10,10,11,11,12,12,13,13,14,14,15,15,16,16,17,17,18,18,19,19,20,20,21,21,22,22,23,23,24,24,25,25,26,26,27,27,28,28,29,29,30,30],"right_children":[2,4,6,8,10,12,14,16,18,20,22,24,26,28,30,32,34,36,38,40,42,44,46,48,50,52,54,56,58,60,62,-1,-1,-1,-1,-1,-1,-1,-1,-1,-1,-1,-1,-1,-1,-1,-1,-1,-1,-1,-1,-1,-1,-1,-1,-1,-1,-1,-1,-1,-1,-1,-1],"split_conditions":[5.0599796E-1,1E0,1.18732944E-1,8.370882E-1,2.4988507E-1,2E0,9.2532836E-2,3.1703177E-1,9.063065E-1,6.496203E-1,1.18732944E-1,2.342525E-1,4E0,6.601621E-1,1.1918728E-1,6.4330375E-1,2E0,5E0,9.257885E-1,5.661333E-1,1.4746667E0,2E0,1.190823E-1,1E0,1.0876915E5,3E0,7.19525E-1,1.190823E-1,7.9E-2,5.231555E5,1.71495E4,3.2188404E-2,-4.216014E-3,-2.7589967E-2,9.6654E-3,4.619636E-2,-6.2600195E-2,5.836097E-2,6.287975E-2,1.7323626E-2,-1.3433856E-2,-8.812309E-2,-2.24211E-2,-4.2256024E-2,-1.3942488E-3,-6.787404E-2,-2.9491598E-2,-7.086953E-2,-9.9710986E-2,-7.7307047E-3,-5.3220447E-2,-1.3925421E-2,4.1129094E-2,-3.666787E-2,-8.15766E-2,-7.216301E-2,-4.8566874E-2,-7.680769E-2,-2.991972E-2,-1.0272079E-1,-2.3374585E-2,-1.3548538E-1,2.3970457E-3],"split_indices":[0,15,8,15,0,19,1,0,15,11,8,4,19,7,1,7,19,23,15,7,2,19,8,15,12,19,7,8,1,12,6,0,0,0,0,0,0,0,0,0,0,0,0,0,0,0,0,0,0,0,0,0,0,0,0,0,0,0,0,0,0,0,0],"split_type":[0,0,0,0,0,0,0,0,0,0,0,0,0,0,0,0,0,0,0,0,0,0,0,0,0,0,0,0,0,0,0,0,0,0,0,0,0,0,0,0,0,0,0,0,0,0,0,0,0,0,0,0,0,0,0,0,0,0,0,0,0,0,0],"sum_hessian":[1.4484414E5,1.2174189E5,2.3102258E4,9.1439414E4,3.030247E4,9.03226E3,1.4069997E4,7.7452195E4,1.3987219E4,1.3079861E4,1.722261E4,2.12432E3,6.9079395E3,1.2589093E4,1.4809045E3,5.1061477E4,2.639072E4,6.3715938E3,7.615625E3,1.1824986E4,1.2548749E3,8.471933E3,8.750676E3,1.5955763E3,5.2874365E2,6.9092554E2,6.217014E3,7.264154E3,5.3249385E3,1.4305568E3,5.034783E1,4.6924703E4,4.136776E3,4.6106406E3,2.178008E4,6.321738E3,4.9856037E1,1.6562491E3,5.9593755E3,9.877151E3,1.9478354E3,1.0352834E2,1.1513466E3,1.5202687E3,6.9516646E3,1.8608138E3,6.8898623E3,9.8435706E2,6.112193E2,1.4877254E2,3.7997113E2,3.929367E2,2.9798883E2,5.47723E3,7.397842E2,2.3295554E3,4.9345986E3,5.168594E3,1.5634427E2,1.4069269E3,2.3629766E1,9.763029E0,4.0584805E1],"tree_param":{"num_deleted":"0","num_feature":"24","num_nodes":"63","size_leaf_vector":"1"}},{"base_weights":[9.525669E-2,3.2791683E-1,-1.1094923E0,3.132974E-2,6.087901E-1,-1.247978E0,-7.95177E-1,3.111366E-1,-2.0303865E-1,1.2209462E0,3.7744656E-1,-1.5853497E0,-1.1374584E0,6.659476E-2,-1.0395927E0,4.0050495E-1,-1.7095251E-1,-1.3555239E-1,-1.2778856E0,6.1375976E-2,6.0343266E-2,-3.1892034E-1,6.036924E-1,-1.6943461E0,-1.2483618E0,-2.0365413E-1,-1.2132263E0,-1.3679587E0,-7.6380503E-1,2.1210229E-2,-4.4593927E-2,4.356605E-3,-2.8646186E-2,4.7876053E-3,-1.859803E-2,-4.5473617E-2,-8.291742E-2,3.8899915E-4,-4.0114697E-2,6.157412E-2,1.9035477E-2,-7.6410964E-2,-9.1750346E-2,-4.178148E-2,-7.7109836E-2,-3.7681073E-2,2.1164184E-2,-4.848921E-2,-6.7901425E-2,-5.3230654E-2,-7.9265736E-2,6.972194E-2,-5.0103933E-2],"categories":[],"categories_nodes":[],"categories_segments":[],"categories_sizes":[],"default_left":[0,0,0,0,0,0,0,0,0,0,0,0,0,0,0,0,0,0,0,0,0,0,0,0,0,0,0,0,0,0,0,0,0,0,0,0,0,0,0,0,0,0,0,0,0,0,0,0,0,0,0,0,0],"id":8,"left_children":[1,3,5,7,9,11,13,15,17,19,21,23,25,-1,27,29,31,33,35,-1,-1,37,39,41,43,45,47,49,51,-1,-1,-1,-1,-1,-1,-1,-1,-1,-1,-1,-1,-1,-1,-1,-1,-1,-1,-1,-1,-1,-1,-1,-1],"loss_changes":[4.0600816E4,1.0113305E4,1.0195449E3,3.8725032E3,8.829945E3,6.04959E2,3.7307427E3,1.1597339E3,2.3308394E3,9.765625E-2,7.1298857E3,1.4528125E2,8.6725684E2,0E0,5.816675E2,6.958877E2,4.3681793E2,1.6535164E3,2.6457983E2,0E0,0E0,1.75256E3,4.780999E3,6.7984375E1,1.1811157E2,3.18011E2,3.9845508E2,1.9189746E2,1.8010554E3,0E0,0E0,0E0,0E0,0E0,0E0,0E0,0E0,0E0,0E0,0E0,0E0,0E0,0E0,0E0,0E0,0E0,0E0,0E0,0E0,0E0,0E0,0E0,0E0],"parents":[2147483647,0,0,1,1,2,2,3,3,4,4,5,5,6,6,7,7,8,8,9,9,10,10,11,11,12,12,14,14,15,15,16,16,17,17,18,18,21,21,22,22,23,23,24,24,25,25,26,26,27,27,28,28],"right_children":[2,4,6,8,10,12,14,16,18,20,22,24,26,-1,28,30,32,34,36,-1,-1,38,40,42,44,46,48,50,52,-1,-1,-1,-1,-1,-1,-1,-1,-1,-1,-1,-1,-1,-1,-1,-1,-1,-1,-1,-1,-1,-1,-1,-1],"split_conditions":[5.0599796E-1,3.3900023E-2,3.3900023E-2,2.608559E-1,1E0,2E0,1E0,5.7091653E-1,6.643243E-1,8.370882E-1,1.0279689E0,2.342525E-1,4E0,6.659476E-2,1.0279689E0,7.128381E-1,2.67885E4,1.18732944E-1,7.419908E-1,6.1375976E-2,6.0343266E-2,2.9859498E-1,2E0,1E0,1.1620156E-1,3E0,1.18732944E-1,5.5403125E-1,2E0,2.1210229E-2,-4.4593927E-2,4.356605E-3,-2.8646186E-2,4.7876053E-3,-1.859803E-2,-4.5473617E-2,-8.291742E-2,3.8899915E-4,-4.0114697E-2,6.157412E-2,1.9035477E-2,-7.6410964E-2,-9.1750346E-2,-4.178148E-2,-7.7109836E-2,-3.7681073E-2,2.1164184E-2,-4.848921E-2,-6.7901425E-2,-5.3230654E-2,-7.9265736E-2,6.972194E-2,-5.0103933E-2],"split_indices":[0,18,18,0,18,19,18,11,3,15,18,4,19,0,18,3,5,8,3,0,0,0,18,15,8,19,8,11,18,0,0,0,0,0,0,0,0,0,0,0,0,0,0,0,0,0,0,0,0,0,0,0,0],"split_type":[0,0,0,0,0,0,0,0,0,0,0,0,0,0,0,0,0,0,0,0,0,0,0,0,0,0,0,0,0,0,0,0,0,0,0,0,0,0,0,0,0,0,0,0,0,0,0,0,0,0,0,0,0],"sum_hessian":[1.4484695E5,1.2140253E5,2.3444428E4,5.9050008E4,6.2352523E4,1.6272069E4,7.1723594E3,2.6915686E4,3.2134324E4,1.7100021E4,4.52525E4,4.0119246E3,1.2260145E4,7.3875574E2,6.4336035E3,2.2706572E4,4.2091133E3,3.0236967E4,1.897358E3,1.1599095E4,5.5009277E3,1.1096851E4,3.415565E4,3.028386E3,9.835386E2,9.2039307E2,1.1339752E4,2.9350425E3,3.4985613E3,2.229834E4,4.082329E2,2.563809E3,1.6453041E3,1.5283757E4,1.4953209E4,9.656661E2,9.316919E2,6.622112E3,4.474739E3,8.95082E3,2.5204828E4,1.393942E3,1.634444E3,4.1061548E2,5.7292303E2,4.901861E2,4.30207E2,4.2322183E3,7.107533E3,1.2276337E3,1.7074087E3,3.4736185E2,3.1511995E3],"tree_param":{"num_deleted":"0","num_feature":"24","num_nodes":"53","size_leaf_vector":"1"}},{"base_weights":[8.831755E-2,3.1168833E-1,-1.0314127E0,2.4175907E-2,5.8827853E-1,-1.4217936E0,-9.144591E-1,2.963087E-1,-2.0153908E-1,6.0389597E-2,3.630135E-1,-1.529959E0,-1.0786685E0,7.002074E-2,-1.0026981E0,3.6712387E-1,-2.4752441E-1,-1.3626298E-1,-1.2327749E0,-3.1061E-1,5.854372E-1,-1.4228257E0,-1.8221387E0,-8.009839E-1,-1.4068823E0,-3.2019708E-1,5.398222E-1,-7.2990125E-1,-1.1692941E0,2.061338E-2,-1.3721942E-2,4.1399043E-2,-1.9921863E-2,-2.2874237E-3,-4.1053172E-2,-4.1838244E-2,-7.891615E-2,-2.7004695E-3,-4.3598846E-2,6.0883995E-2,1.8499149E-2,-7.655148E-2,-5.7958987E-2,-1.04941E-1,-8.5507914E-2,-1.8322876E-2,-5.0660808E-2,-4.8945684E-2,-8.358496E-2,-4.076143E-2,3.0659186E-3,4.081392E-2,-9.935108E-3,-3.0945063E-2,-6.274054E-2,-5.536921E-2,-9.0301864E-2],"categories":[],"categories_nodes":[],"categories_segments":[],"categories_sizes":[],"default_left":[0,0,0,0,0,0,0,0,0,0,0,0,0,0,0,0,0,0,0,0,0,0,0,0,0,0,0,0,0,0,0,0,0,0,0,0,0,0,0,0,0,0,0,0,0,0,0,0,0,0,0,0,0,0,0,0,0],"id":9,"left_children":[1,3,5,7,9,11,13,15,17,-1,19,21,23,25,27,29,31,33,35,37,39,41,43,45,47,49,51,53,55,-1,-1,-1,-1,-1,-1,-1,-1,-1,-1,-1,-1,-1,-1,-1,-1,-1,-1,-1,-1,-1,-1,-1,-1,-1,-1,-1,-1],"loss_changes":[3.588787E4,9.51271E3,1.0882012E3,3.6028516E3,8.508086E3,2.024502E2,1.5954111E3,1.0242332E3,2.1580854E3,0E0,6.699486E3,1.2821289E2,1.19309814E2,2.772821E2,7.6511914E2,6.815906E2,4.9771344E2,1.8690657E3,2.598457E2,1.5988173E3,4.578449E3,8.558252E1,3.1036621E1,6.585666E1,6.6851074E1,1.5611685E2,1.402677E2,3.717085E2,4.1043066E2,0E0,0E0,0E0,0E0,0E0,0E0,0E0,0E0,0E0,0E0,0E0,0E0,0E0,0E0,0E0,0E0,0E0,0E0,0E0,0E0,0E0,0E0,0E0,0E0,0E0,0E0,0E0,0E0],"parents":[2147483647,0,0,1,1,2,2,3,3,4,4,5,5,6,6,7,7,8,8,10,10,11,11,12,12,13,13,14,14,15,15,16,16,17,17,18,18,19,19,20,20,21,21,22,22,23,23,24,24,25,25,26,26,27,27,28,28],"right_children":[2,4,6,8,10,12,14,16,18,-1,20,22,24,26,28,30,32,34,36,38,40,42,44,46,48,50,52,54,56,-1,-1,-1,-1,-1,-1,-1,-1,-1,-1,-1,-1,-1,-1,-1,-1,-1,-1,-1,-1,-1,-1,-1,-1,-1,-1,-1,-1],"split_conditions":[5.0599796E-1,3.3900023E-2,2E0,2.608559E-1,1E0,2.342525E-1,4E0,5.389589E1,6.643243E-1,6.0389597E-2,1.0279689E0,6.848277E-1,6.075573E-1,3E0,1.18732944E-1,6.7065173E-1,5.057637E-1,3E0,7.3470956E-1,3.376727E-1,2E0,3.3900023E-2,7.1949077E-1,3.6036E-2,1.1835368E-1,3.9846577E1,5.659452E1,5.3527623E-1,9.741088E-2,2.061338E-2,-1.3721942E-2,4.1399043E-2,-1.9921863E-2,-2.2874237E-3,-4.1053172E-2,-4.1838244E-2,-7.891615E-2,-2.7004695E-3,-4.3598846E-2,6.0883995E-2,1.8499149E-2,-7.655148E-2,-5.7958987E-2,-1.04941E-1,-8.5507914E-2,-1.8322876E-2,-5.0660808E-2,-4.8945684E-2,-8.358496E-2,-4.076143E-2,3.0659186E-3,4.081392E-2,-9.935108E-3,-3.0945063E-2,-6.274054E-2,-5.536921E-2,-9.0301864E-2],"split_indices":[0,18,19,0,18,4,19,9,3,0,18,11,11,19,8,11,3,20,3,0,18,18,11,1,8,9,9,0,1,0,0,0,0,0,0,0,0,0,0,0,0,0,0,0,0,0,0,0,0,0,0,0,0,0,0,0,0],"split_type":[0,0,0,0,0,0,0,0,0,0,0,0,0,0,0,0,0,0,0,0,0,0,0,0,0,0,0,0,0,0,0,0,0,0,0,0,0,0,0,0,0,0,0,0,0,0,0,0,0,0,0,0,0,0,0,0,0],"sum_hessian":[1.4348317E5,1.19621125E5,2.386205E4,5.8653035E4,6.096809E4,5.4982407E3,1.8363809E4,2.6592062E4,3.2060975E4,1.6256331E4,4.4711758E4,4.177792E3,1.3204484E3,1.5105745E3,1.6853234E4,2.3528611E4,3.0634507E3,3.0153428E4,1.9075469E3,1.1098596E4,3.3613164E4,3.0612102E3,1.1165819E3,7.171476E2,6.033008E2,8.253532E2,6.852212E2,6.391954E3,1.046128E4,2.1982186E4,1.5464255E3,3.764108E2,2.6870398E3,2.6634094E4,3.519334E3,8.9046484E2,1.01708203E3,7.617661E3,3.480934E3,8.54208E3,2.5071084E4,2.167026E3,8.9418445E2,3.1659534E2,7.999866E2,2.3622493E2,4.8092264E2,2.3240666E2,3.708941E2,3.5873868E2,4.6661456E2,4.985069E2,1.867143E2,5.2780176E3,1.1139366E3,9.536769E3,9.2451196E2],"tree_param":{"num_deleted":"0","num_feature":"24","num_nodes":"57","size_leaf_vector":"1"}},{"base_weights":[8.347914E-2,2.986779E-1,-9.671444E-1,4.634002E-1,-1.7300627E-1,-1.1010865E0,-6.66606E-1,3.6818013E-1,1.1196454E0,1.3885655E-1,-4.0156922E-1,-1.4404275E0,-9.916614E-1,6.605292E-2,-8.8660413E-1,-1.6502986E-2,5.221496E-1,1.1709E0,8.165501E-2,2.3488897E-1,-3.3622703E-1,-9.678999E-1,-2.755323E-1,-1.5416244E0,-1.1538396E0,-1.7443272E-1,-1.0570693E0,-1.183103E0,-6.354672E-1,1.3893281E-2,-1.3411753E-2,6.0026463E-2,1.7404074E-2,5.295167E-2,6.1217315E-2,-4.5344528E-2,5.675609E-2,-1.0125384E-2,1.5762111E-2,-5.126315E-2,-8.707503E-3,-2.3902649E-2,-5.5789646E-2,2.7895272E-2,-2.0627407E-2,-1.0797909E-2,-7.8011625E-2,-5.97001E-2,5.307867E-2,-3.6081098E-2,2.1390928E-2,-4.704946E-2,-6.644706E-2,-4.5859218E-2,-6.881293E-2,6.9227025E-2,-4.1709892E-2],"categories":[],"categories_nodes":[],"categories_segments":[],"categories_sizes":[],"default_left":[0,0,0,0,0,0,0,0,0,0,0,0,0,0,0,0,0,0,0,0,0,0,0,0,0,0,0,0,0,0,0,0,0,0,0,0,0,0,0,0,0,0,0,0,0,0,0,0,0,0,0,0,0,0,0,0,0],"id":10,"left_children":[1,3,5,7,9,11,13,15,17,19,21,23,25,-1,27,29,31,33,35,37,39,41,43,45,47,49,51,53,55,-1,-1,-1,-1,-1,-1,-1,-1,-1,-1,-1,-1,-1,-1,-1,-1,-1,-1,-1,-1,-1,-1,-1,-1,-1,-1,-1,-1],"loss_changes":[3.2149451E4,9.169962E3,9.723965E2,5.465627E3,2.177553E3,6.194375E2,3.2611172E3,4.524623E3,5.895703E2,5.8956146E2,1.2580503E3,1.16396484E2,6.758125E2,0E0,4.9908887E2,1.6182253E3,6.4417256E3,6.1850586E1,5.452797E2,3.7783704E2,2.4249475E2,2.3192065E2,1.6470327E3,7.387695E1,9.623547E1,3.0954382E2,3.6827734E2,1.5679297E2,1.460993E3,0E0,0E0,0E0,0E0,0E0,0E0,0E0,0E0,0E0,0E0,0E0,0E0,0E0,0E0,0E0,0E0,0E0,0E0,0E0,0E0,0E0,0E0,0E0,0E0,0E0,0E0,0E0,0E0],"parents":[2147483647,0,0,1,1,2,2,3,3,4,4,5,5,6,6,7,7,8,8,9,9,10,10,11,11,12,12,14,14,15,15,16,16,17,17,18,18,19,19,20,20,21,21,22,22,23,23,24,24,25,25,26,26,27,27,28,28],"right_children":[2,4,6,8,10,12,14,16,18,20,22,24,26,-1,28,30,32,34,36,38,40,42,44,46,48,50,52,54,56,-1,-1,-1,-1,-1,-1,-1,-1,-1,-1,-1,-1,-1,-1,-1,-1,-1,-1,-1,-1,-1,-1,-1,-1,-1,-1,-1,-1],"split_conditions":[5.0599796E-1,1E0,3.3900023E-2,8.5892606E-1,2.4988507E-1,2E0,1E0,3.3900023E-2,1E0,5.7305044E-1,2E0,2.2786666E-1,4E0,6.605292E-2,1.0279689E0,2.608559E-1,1E0,9.063065E-1,1.0279689E0,2E0,2.0726285E0,3.062023E-1,4E0,2.3884932E1,3.6853373E-2,3E0,6.817059E-1,5.5403125E-1,2E0,1.3893281E-2,-1.3411753E-2,6.0026463E-2,1.7404074E-2,5.295167E-2,6.1217315E-2,-4.5344528E-2,5.675609E-2,-1.0125384E-2,1.5762111E-2,-5.126315E-2,-8.707503E-3,-2.3902649E-2,-5.5789646E-2,2.7895272E-2,-2.0627407E-2,-1.0797909E-2,-7.8011625E-2,-5.97001E-2,5.307867E-2,-3.6081098E-2,2.1390928E-2,-4.704946E-2,-6.644706E-2,-4.5859218E-2,-6.881293E-2,6.9227025E-2,-4.1709892E-2],"split_indices":[0,15,18,15,0,19,18,18,18,11,19,4,19,0,18,0,18,15,18,19,2,0,19,9,13,19,11,11,18,0,0,0,0,0,0,0,0,0,0,0,0,0,0,0,0,0,0,0,0,0,0,0,0,0,0,0,0],"split_type":[0,0,0,0,0,0,0,0,0,0,0,0,0,0,0,0,0,0,0,0,0,0,0,0,0,0,0,0,0,0,0,0,0,0,0,0,0,0,0,0,0,0,0,0,0,0,0,0,0,0,0,0,0,0,0,0,0],"sum_hessian":[1.421935E5,1.18020195E5,2.4173307E4,8.747281E4,3.0547383E4,1.6719293E4,7.4540137E3,7.639027E4,1.1082541E4,1.2919608E4,1.7627773E4,4.0737896E3,1.2645504E4,7.4230914E2,6.7117046E3,2.1835797E4,5.4554477E4,1.0560927E4,5.2161414E2,1.0747613E4,2.171995E3,3.2077007E3,1.4420073E4,3.0074514E3,1.066338E3,9.3736865E2,1.1708135E4,3.0761777E3,3.6355269E3,1.006544E4,1.1770355E4,1.1138711E4,4.3415766E4,3.421118E3,7.139809E3,2.6917065E2,2.5244351E2,1.6677614E3,9.079853E3,4.1259775E2,1.7593975E3,7.448527E2,2.462848E3,2.0354993E3,1.2384574E4,4.1805134E1,2.9656462E3,1.0478038E3,1.8534239E1,4.91032E2,4.463366E2,8.208038E3,3.5000967E3,1.2967206E3,1.7794572E3,3.2509686E2,3.31043E3],"tree_param":{"num_deleted":"0","num_feature":"24","num_nodes":"57","size_leaf_vector":"1"}},{"base_weights":[8.347589E-2,2.9021543E-1,-9.160042E-1,4.513095E-1,-1.6452375E-1,-8.134616E-1,-1.2955749E0,3.5959253E-1,1.102194E0,-6.0599834E-2,-8.4611905E-1,-6.4298034E-1,-1.0708154E0,-1.5251473E0,-1.1246151E0,-1.5367455E-2,5.1181483E-1,1.1547278E0,1.12237014E-1,5.0636463E-2,-6.609587E-1,-1.2517323E0,-6.8969715E-1,-7.1458256E-1,1.2476507E0,-9.0066665E-1,-1.3546779E0,-1.2506454E0,-1.7422544E0,-9.002677E-1,-1.2905514E0,1.2981324E-2,-1.2140884E-2,5.944865E-2,1.7206132E-2,5.2070983E-2,6.049472E-2,-3.8202852E-2,5.682717E-2,6.919782E-3,-2.3188535E-2,-2.2858009E-2,-4.827835E-2,-7.342331E-2,-3.9858002E-2,-4.884228E-2,-2.064476E-2,-5.872072E-2,-2.9664522E-2,6.7940086E-2,-8.336676E-2,-7.918032E-2,-3.957483E-2,-6.26733E-2,-8.8821076E-2,-2.865777E-2,-7.047153E-2,-5.0705492E-2,-8.855747E-2,-8.833544E-2,-4.12123E-2,-6.714799E-2,-3.1065702E-2],"categories":[],"categories_nodes":[],"categories_segments":[],"categories_sizes":[],"default_left":[0,0,0,0,0,0,0,0,0,0,0,0,0,0,0,0,0,0,0,0,0,0,0,0,0,0,0,0,0,0,0,0,0,0,0,0,0,0,0,0,0,0,0,0,0,0,0,0,0,0,0,0,0,0,0,0,0,0,0,0,0,0,0],"id":11,"left_children":[1,3,5,7,9,11,13,15,17,19,21,23,25,27,29,31,33,35,37,39,41,43,45,47,49,51,53,55,57,59,61,-1,-1,-1,-1,-1,-1,-1,-1,-1,-1,-1,-1,-1,-1,-1,-1,-1,-1,-1,-1,-1,-1,-1,-1,-1,-1,-1,-1,-1,-1,-1,-1],"loss_changes":[2.9188188E4,8.574359E3,9.4127734E2,5.159133E3,2.168776E3,8.357217E2,2.0032324E2,4.323916E3,5.5498926E2,1.774336E3,2.5614233E2,1.5536138E3,3.6560742E2,1.286001E2,1.088208E2,1.3682944E3,6.1180283E3,6.209961E1,4.8467426E2,1.01202966E3,2.5738867E2,1.0977869E2,2.3213159E2,6.1571875E2,1.3799188E2,3.5301025E2,1.1918652E2,1.03826416E2,2.393042E1,8.1498474E1,5.864868E1,0E0,0E0,0E0,0E0,0E0,0E0,0E0,0E0,0E0,0E0,0E0,0E0,0E0,0E0,0E0,0E0,0E0,0E0,0E0,0E0,0E0,0E0,0E0,0E0,0E0,0E0,0E0,0E0,0E0,0E0,0E0,0E0],"parents":[2147483647,0,0,1,1,2,2,3,3,4,4,5,5,6,6,7,7,8,8,9,9,10,10,11,11,12,12,13,13,14,14,15,15,16,16,17,17,18,18,19,19,20,20,21,21,22,22,23,23,24,24,25,25,26,26,27,27,28,28,29,29,30,30],"right_children":[2,4,6,8,10,12,14,16,18,20,22,24,26,28,30,32,34,36,38,40,42,44,46,48,50,52,54,56,58,60,62,-1,-1,-1,-1,-1,-1,-1,-1,-1,-1,-1,-1,-1,-1,-1,-1,-1,-1,-1,-1,-1,-1,-1,-1,-1,-1,-1,-1,-1,-1,-1,-1],"split_conditions":[5.0599796E-1,1E0,7.0405555E-1,8.5892606E-1,6.4186233E-1,1E0,3.16E0,3.3900023E-2,1E0,6.3303167E-1,2E0,9.063065E-1,6.463299E-1,5.7091653E-1,7.3029494E-1,2.608559E-1,1E0,9.063065E-1,1.0279689E0,5.339726E1,2.3616225E4,6.0911727E-1,2.7132684E4,2E0,9.712983E-1,1.8365883E0,5.6560796E-1,4.878709E-1,7.058975E-1,2.768979E-2,4E0,1.2981324E-2,-1.2140884E-2,5.944865E-2,1.7206132E-2,5.2070983E-2,6.049472E-2,-3.8202852E-2,5.682717E-2,6.919782E-3,-2.3188535E-2,-2.2858009E-2,-4.827835E-2,-7.342331E-2,-3.9858002E-2,-4.884228E-2,-2.064476E-2,-5.872072E-2,-2.9664522E-2,6.7940086E-2,-8.336676E-2,-7.918032E-2,-3.957483E-2,-6.26733E-2,-8.8821076E-2,-2.865777E-2,-7.047153E-2,-5.0705492E-2,-8.855747E-2,-8.833544E-2,-4.12123E-2,-6.714799E-2,-3.1065702E-2],"split_indices":[0,15,7,15,7,15,2,18,18,11,19,15,11,11,7,0,18,15,18,9,5,14,6,19,18,2,0,15,7,1,23,0,0,0,0,0,0,0,0,0,0,0,0,0,0,0,0,0,0,0,0,0,0,0,0,0,0,0,0,0,0,0,0],"split_type":[0,0,0,0,0,0,0,0,0,0,0,0,0,0,0,0,0,0,0,0,0,0,0,0,0,0,0,0,0,0,0,0,0,0,0,0,0,0,0,0,0,0,0,0,0,0,0,0,0,0,0,0,0,0,0,0,0,0,0,0,0,0,0],"sum_hessian":[1.4125453E5,1.1704485E5,2.4209678E4,8.642743E4,3.0617422E4,1.9062904E4,5.1467754E3,7.575434E4,1.067309E4,2.6567693E4,4.0497292E3,1.1468931E4,7.5939727E3,2.1934255E3,2.9533496E3,2.18741E4,5.3880242E4,1.0135087E4,5.380033E2,2.2415414E4,4.1522793E3,1.1251453E3,2.924584E3,1.1051027E4,4.179036E2,4.7506064E3,2.8433665E3,9.716581E2,1.2217676E3,1.258403E3,1.6949465E3,9.902068E3,1.197203E4,1.0693344E4,4.31869E4,3.3252156E3,6.809871E3,2.9008752E2,2.479158E2,1.9149236E4,3.2661777E3,2.489307E3,1.6629727E3,7.6037726E2,3.6476797E2,1.4342228E3,1.4903612E3,2.3047566E3,8.7462705E3,4.030681E2,1.483548E1,6.5287604E2,4.0977305E3,2.2962695E3,5.470968E2,1.8536588E2,7.862922E2,4.801052E1,1.1737571E3,9.9712395E1,1.1586906E3,1.5709202E3,1.2402641E2],"tree_param":{"num_deleted":"0","num_feature":"24","num_nodes":"63","size_leaf_vector":"1"}},{"base_weights":[7.8009695E-2,2.8370723E-1,-5.773736E-1,4.0937647E-1,-4.2617416E-1,-3.970358E-1,-1.0236088E0,1.6191524E-1,6.425954E-1,-1.7929912E-1,-7.758355E-1,-6.380044E-1,-5.0216075E-2,-5.2103907E-1,-1.1066589E0,1.977861E-1,-1.0933983E0,5.8643885E-2,4.6618E-1,1.4053752E-1,-4.9366006E-1,-4.198191E-1,-1.0242443E0,-5.1364166E-1,-1.1491671E0,1.2018639E0,-3.308982E-1,-3.6623824E-1,-1.4752808E0,-1.3751986E0,-9.721093E-1,1.3118284E-2,-1.7881757E-2,-2.975638E-2,-6.642621E-2,-6.0460353E-3,3.2659154E-2,1.0281104E-2,-6.0616076E-2,-1.8482517E-2,-5.9362244E-2,-1.9157788E-3,-3.469413E-2,-7.067282E-2,-4.163004E-2,-7.3039434E-3,-3.268185E-2,-8.238254E-2,-4.9548864E-2,5.8832895E-2,6.1908312E-2,-4.334197E-2,-2.0768228E-3,-1.4802322E-2,-1.13763094E-1,-2.7565269E-2,-9.9702924E-2,-4.146496E-2,-7.2260804E-2,-5.4778036E-2,-3.4587026E-2],"categories":[],"categories_nodes":[],"categories_segments":[],"categories_sizes":[],"default_left":[0,0,0,0,0,0,0,0,0,0,0,0,0,0,0,0,0,0,0,0,0,0,0,0,0,0,0,0,0,0,0,0,0,0,0,0,0,0,0,0,0,0,0,0,0,0,0,0,0,0,0,0,0,0,0,0,0,0,0,0,0],"id":12,"left_children":[1,3,5,7,9,11,13,15,17,19,21,23,25,27,29,31,33,-1,35,37,39,41,43,45,47,49,51,53,55,57,59,-1,-1,-1,-1,-1,-1,-1,-1,-1,-1,-1,-1,-1,-1,-1,-1,-1,-1,-1,-1,-1,-1,-1,-1,-1,-1,-1,-1,-1,-1],"loss_changes":[1.8942186E4,9.540669E3,2.7007002E3,5.2436504E3,1.3883752E3,1.9978845E3,4.0261816E2,1.9853334E3,4.3753086E3,9.481665E2,5.882554E2,8.961006E2,3.4450662E3,2.0210312E2,2.98167E2,1.5374781E3,1.4271387E2,0E0,3.85375E3,4.1187537E2,4.0861E2,2.8618628E2,2.9122314E2,5.837981E2,2.1596411E2,1.8579102E-1,1.241784E3,1.57669E2,9.052649E1,1.044668E2,1.9049707E2,0E0,0E0,0E0,0E0,0E0,0E0,0E0,0E0,0E0,0E0,0E0,0E0,0E0,0E0,0E0,0E0,0E0,0E0,0E0,0E0,0E0,0E0,0E0,0E0,0E0,0E0,0E0,0E0,0E0,0E0],"parents":[2147483647,0,0,1,1,2,2,3,3,4,4,5,5,6,6,7,7,8,8,9,9,10,10,11,11,12,12,13,13,14,14,15,15,16,16,18,18,19,19,20,20,21,21,22,22,23,23,24,24,25,25,26,26,27,27,28,28,29,29,30,30],"right_children":[2,4,6,8,10,12,14,16,18,20,22,24,26,28,30,32,34,-1,36,38,40,42,44,46,48,50,52,54,56,58,60,-1,-1,-1,-1,-1,-1,-1,-1,-1,-1,-1,-1,-1,-1,-1,-1,-1,-1,-1,-1,-1,-1,-1,-1,-1,-1,-1,-1,-1,-1],"split_conditions":[6.168027E-1,6.1782616E-1,7.058975E-1,3.3900023E-2,7.062051E-1,3.3900023E-2,3.1703177E-1,7.201369E-1,1E0,9.225E3,1.18732944E-1,6.690567E-1,1E0,6.1217755E-1,1.352E-1,5.6221916E1,4.0140742E-1,5.8643885E-2,1.0279689E0,6.70909E-1,5.772329E1,7E0,1.190823E-1,5.0599796E-1,1.2925E-1,5.2629495E-1,1.0279689E0,9.379E-2,9.402857E-2,1E0,3.3900023E-2,1.3118284E-2,-1.7881757E-2,-2.975638E-2,-6.642621E-2,-6.0460353E-3,3.2659154E-2,1.0281104E-2,-6.0616076E-2,-1.8482517E-2,-5.9362244E-2,-1.9157788E-3,-3.469413E-2,-7.067282E-2,-4.163004E-2,-7.3039434E-3,-3.268185E-2,-8.238254E-2,-4.9548864E-2,5.8832895E-2,6.1908312E-2,-4.334197E-2,-2.0768228E-3,-1.4802322E-2,-1.13763094E-1,-2.7565269E-2,-9.9702924E-2,-4.146496E-2,-7.2260804E-2,-5.4778036E-2,-3.4587026E-2],"split_indices":[7,11,7,18,11,18,11,3,18,5,8,11,18,3,4,9,11,0,18,3,9,17,8,3,4,11,18,1,4,23,18,0,0,0,0,0,0,0,0,0,0,0,0,0,0,0,0,0,0,0,0,0,0,0,0,0,0,0,0,0,0],"split_type":[0,0,0,0,0,0,0,0,0,0,0,0,0,0,0,0,0,0,0,0,0,0,0,0,0,0,0,0,0,0,0,0,0,0,0,0,0,0,0,0,0,0,0,0,0,0,0,0,0,0,0,0,0,0,0,0,0,0,0,0,0],"sum_hessian":[1.4050725E5,1.069429E5,3.3564355E4,9.0858734E4,1.6084163E4,2.3905338E4,9.659018E3,4.4084145E4,4.6774594E4,9.42866E3,6.6555024E3,1.4104655E4,9.800683E3,1.3708315E3,8.288186E3,4.2860246E4,1.2238982E3,1.1675096E4,3.5099496E4,4.6739004E3,4.75476E3,2.736407E3,3.9190955E3,1.1346199E4,2.7584565E3,1.7941176E3,8.0065654E3,1.1806807E3,1.9015085E2,2.7634856E3,5.5246997E3,3.8396375E4,4.4638706E3,3.9351193E2,8.303862E2,8.479199E3,2.6620299E4,4.4601743E3,2.1372607E2,4.0348757E3,7.198839E2,1.1444469E3,1.5919601E3,1.2909359E3,2.6281597E3,3.1300862E3,8.216113E3,6.622318E2,2.0962249E3,1.0786139E3,7.155036E2,2.8065044E3,5.200061E3,1.1399226E3,4.0758083E1,6.911516E1,1.2103569E2,3.1561316E2,2.4478726E3,3.8337324E3,1.6909674E3],"tree_param":{"num_deleted":"0","num_feature":"24","num_nodes":"61","size_leaf_vector":"1"}},{"base_weights":[7.817591E-2,2.714029E-1,-8.3185357E-1,4.2328024E-1,-1.4532647E-1,-6.95828E-1,-1.1066686E0,3.2367423E-1,1.0191301E0,5.2988447E-2,-4.3278286E-1,-4.5931485E-1,-8.577946E-1,-1.2200153E0,-8.305934E-1,5.530976E-1,8.199027E-2,1.0959392E0,6.0653113E-2,1.5332109E-1,-3.7990183E-1,-1.3878071E-1,-6.829969E-1,-1.6919775E-1,-6.8253523E-1,-1.0708208E0,-6.8322456E-1,-1.3924642E0,-1.0996487E0,6.3270405E-2,-9.4226617E-1,1.0840815E-2,3.3353638E-2,-2.4427986E-2,1.0060319E-2,4.8207052E-2,5.9678644E-2,-3.6304545E-2,5.4919958E-2,1.2867956E-2,-1.68966E-2,-3.8724307E-3,-4.0747028E-2,-1.04185754E-4,-4.5589734E-2,-6.0808267E-2,-2.6761426E-2,-3.3439133E-2,3.6196467E-2,-5.9275616E-2,-2.9419621E-2,-4.3357983E-2,-6.489615E-2,-3.2444526E-2,-9.095563E-2,-6.106584E-2,-8.421596E-2,-6.966178E-2,-4.8840683E-2,-3.91698E-2,-7.290874E-2],"categories":[],"categories_nodes":[],"categories_segments":[],"categories_sizes":[],"default_left":[0,0,0,0,0,0,0,0,0,0,0,0,0,0,0,0,0,0,0,0,0,0,0,0,0,0,0,0,0,0,0,0,0,0,0,0,0,0,0,0,0,0,0,0,0,0,0,0,0,0,0,0,0,0,0,0,0,0,0,0,0],"id":13,"left_children":[1,3,5,7,9,11,13,15,17,19,21,23,25,27,29,31,33,35,37,39,41,43,45,47,49,51,53,55,57,-1,59,-1,-1,-1,-1,-1,-1,-1,-1,-1,-1,-1,-1,-1,-1,-1,-1,-1,-1,-1,-1,-1,-1,-1,-1,-1,-1,-1,-1,-1,-1],"loss_changes":[2.4567623E4,7.294046E3,9.13959E2,5.012505E3,1.754859E3,6.267261E2,2.524541E2,4.0125254E3,8.9047656E2,7.912662E2,9.243877E2,4.3094385E2,3.605708E2,1.1762109E2,5.5376794E2,1.4227617E3,2.3972642E3,1.4295703E2,7.3437976E2,7.5597565E2,4.509888E2,6.106832E2,5.3421533E2,1.2925443E3,1.7741626E2,2.0118213E2,2.0717651E2,1.1561963E2,1.2072583E2,0E0,1.8261133E2,0E0,0E0,0E0,0E0,0E0,0E0,0E0,0E0,0E0,0E0,0E0,0E0,0E0,0E0,0E0,0E0,0E0,0E0,0E0,0E0,0E0,0E0,0E0,0E0,0E0,0E0,0E0,0E0,0E0,0E0],"parents":[2147483647,0,0,1,1,2,2,3,3,4,4,5,5,6,6,7,7,8,8,9,9,10,10,11,11,12,12,13,13,14,14,15,15,16,16,17,17,18,18,19,19,20,20,21,21,22,22,23,23,24,24,25,25,26,26,27,27,28,28,30,30],"right_children":[2,4,6,8,10,12,14,16,18,20,22,24,26,28,30,32,34,36,38,40,42,44,46,48,50,52,54,56,58,-1,60,-1,-1,-1,-1,-1,-1,-1,-1,-1,-1,-1,-1,-1,-1,-1,-1,-1,-1,-1,-1,-1,-1,-1,-1,-1,-1,-1,-1,-1,-1],"split_conditions":[5.0599796E-1,1E0,6.759396E-1,8.370882E-1,3.217353E-1,1.18732944E-1,3.3900023E-2,2.608559E-1,1E0,5.6737924E-1,1.2357E4,7E0,2.4246E4,3.1444445E0,1E0,3.3900023E-2,2E0,9.063065E-1,1.0279689E0,5.8572066E-1,3.00735E4,6.9409263E-1,2E0,2E0,1.3815E4,6.0927564E-1,8.1061804E-1,6.545293E-1,3E0,6.3270405E-2,5.3527623E-1,1.0840815E-2,3.3353638E-2,-2.4427986E-2,1.0060319E-2,4.8207052E-2,5.9678644E-2,-3.6304545E-2,5.4919958E-2,1.2867956E-2,-1.68966E-2,-3.8724307E-3,-4.0747028E-2,-1.04185754E-4,-4.5589734E-2,-6.0808267E-2,-2.6761426E-2,-3.3439133E-2,3.6196467E-2,-5.9275616E-2,-2.9419621E-2,-4.3357983E-2,-6.489615E-2,-3.2444526E-2,-9.095563E-2,-6.106584E-2,-8.421596E-2,-6.966178E-2,-4.8840683E-2,-3.91698E-2,-7.290874E-2],"split_indices":[0,15,7,15,0,8,18,0,18,11,5,17,6,2,18,18,19,15,18,7,5,11,19,17,6,11,11,11,19,0,0,0,0,0,0,0,0,0,0,0,0,0,0,0,0,0,0,0,0,0,0,0,0,0,0,0,0,0,0,0,0],"split_type":[0,0,0,0,0,0,0,0,0,0,0,0,0,0,0,0,0,0,0,0,0,0,0,0,0,0,0,0,0,0,0,0,0,0,0,0,0,0,0,0,0,0,0,0,0,0,0,0,0,0,0,0,0,0,0,0,0,0,0,0,0],"sum_hessian":[1.397117E5,1.1524284E5,2.4468865E4,8.446096E4,3.0781877E4,1.6369814E4,8.099052E3,7.2365445E4,1.2095517E4,1.8215736E4,1.2566141E4,6.655253E3,9.714562E3,5.7392856E3,2.3597664E3,3.712372E4,3.5241727E4,1.1198004E4,8.9751276E2,1.4788739E4,3.426997E3,5.7782446E3,6.7878965E3,2.894744E3,3.7605088E3,4.3730415E3,5.34152E3,2.3548835E3,3.3844019E3,1.1884355E2,2.2409229E3,9.398005E3,2.7725715E4,6.0904883E3,2.915124E4,4.769887E3,6.4281167E3,5.106643E2,3.8684845E2,1.2204529E4,2.5842102E3,2.0222444E3,1.4047527E3,4.910833E3,8.674113E2,1.4714559E3,5.3164404E3,1.8565206E3,1.0382233E3,5.910598E2,3.169449E3,2.3080454E3,2.064996E3,5.1863257E3,1.5519412E2,1.4876768E3,8.672068E2,9.9527124E2,2.3891306E3,1.7152449E3,5.2567804E2],"tree_param":{"num_deleted":"0","num_feature":"24","num_nodes":"61","size_leaf_vector":"1"}},{"base_weights":[7.6039635E-2,2.603644E-1,-7.736702E-1,4.072981E-1,-1.3085078E-1,-6.551046E-1,-1.0362132E0,3.1027037E-1,1.0045805E0,-4.241021E-2,-7.580883E-1,-5.541704E-1,-1.0605834E0,-9.839491E-1,-1.5040256E0,4.129493E-1,-2.1631195E-1,8.155323E-1,1.1702998E0,1.6941512E-1,-2.6613766E-1,-6.8506306E-1,-1.6470609E0,-6.425293E-1,4.8109736E-2,-2.0679026E0,-1.0170822E0,-8.334974E-1,-1.17978E0,-1.1833264E0,-1.719238E0,2.4744464E-2,-1.5245405E-2,-3.447207E-2,-1.1816854E-3,4.214535E-2,-6.3732766E-2,5.455004E-2,5.9575923E-2,2.1282826E-2,-3.5273068E-4,-4.068915E-2,-5.8687646E-3,-2.6599541E-2,-5.2038368E-2,-3.3982318E-2,-9.353664E-2,-2.11725E-2,-3.9690558E-2,-3.496885E-2,1.9228002E-2,-1.0729908E-1,-3.0114267E-2,-4.676944E-2,-7.813752E-2,-4.422448E-2,5.8245804E-2,-5.995216E-2,1.0492255E-2,8.803918E-3,-6.516735E-2,-8.905308E-2,-4.4300836E-2],"categories":[],"categories_nodes":[],"categories_segments":[],"categories_sizes":[],"default_left":[0,0,0,0,0,0,0,0,0,0,0,0,0,0,0,0,0,0,0,0,0,0,0,0,0,0,0,0,0,0,0,0,0,0,0,0,0,0,0,0,0,0,0,0,0,0,0,0,0,0,0,0,0,0,0,0,0,0,0,0,0,0,0],"id":14,"left_children":[1,3,5,7,9,11,13,15,17,19,21,23,25,27,29,31,33,35,37,39,41,43,45,47,49,51,53,55,57,59,61,-1,-1,-1,-1,-1,-1,-1,-1,-1,-1,-1,-1,-1,-1,-1,-1,-1,-1,-1,-1,-1,-1,-1,-1,-1,-1,-1,-1,-1,-1,-1,-1],"loss_changes":[2.1791469E4,6.572145E3,7.713623E2,4.816468E3,1.7316958E3,6.987837E2,1.8713281E2,3.866107E3,3.629209E2,1.2966997E3,2.4930078E2,7.2828125E2,1.4709497E2,2.0354736E2,5.1340332E1,3.519709E3,1.0636455E3,3.1169678E2,9.109375E0,6.355447E2,1.0840048E3,1.9363843E2,6.1938904E1,3.9518506E2,4.4080966E2,1.4726257E1,1.4412158E2,4.014319E2,8.092383E1,5.1422607E1,2.2147095E1,0E0,0E0,0E0,0E0,0E0,0E0,0E0,0E0,0E0,0E0,0E0,0E0,0E0,0E0,0E0,0E0,0E0,0E0,0E0,0E0,0E0,0E0,0E0,0E0,0E0,0E0,0E0,0E0,0E0,0E0,0E0,0E0],"parents":[2147483647,0,0,1,1,2,2,3,3,4,4,5,5,6,6,7,7,8,8,9,9,10,10,11,11,12,12,13,13,14,14,15,15,16,16,17,17,18,18,19,19,20,20,21,21,22,22,23,23,24,24,25,25,26,26,27,27,28,28,29,29,30,30],"right_children":[2,4,6,8,10,12,14,16,18,20,22,24,26,28,30,32,34,36,38,40,42,44,46,48,50,52,54,56,58,60,62,-1,-1,-1,-1,-1,-1,-1,-1,-1,-1,-1,-1,-1,-1,-1,-1,-1,-1,-1,-1,-1,-1,-1,-1,-1,-1,-1,-1,-1,-1,-1,-1],"split_conditions":[5.0599796E-1,1E0,6.6585493E-1,8.370882E-1,6.480364E-1,5.3527623E-1,9.741088E-2,6.1857396E-1,9.063065E-1,1.18732944E-1,6.643243E-1,5.092965E-1,1.58301E5,1E0,6.216082E-1,6.1782616E-1,3.3512467E-1,7.201369E-1,9.257885E-1,7E0,1.190823E-1,7.1542484E-1,8.3333336E-2,1.18732944E-1,5.345366E-1,6.545293E-1,2.7936655E-1,9.063065E-1,5.66E-1,1.7704627E-2,6.77589E1,2.4744464E-2,-1.5245405E-2,-3.447207E-2,-1.1816854E-3,4.214535E-2,-6.3732766E-2,5.455004E-2,5.9575923E-2,2.1282826E-2,-3.5273068E-4,-4.068915E-2,-5.8687646E-3,-2.6599541E-2,-5.2038368E-2,-3.3982318E-2,-9.353664E-2,-2.11725E-2,-3.9690558E-2,-3.496885E-2,1.9228002E-2,-1.0729908E-1,-3.0114267E-2,-4.676944E-2,-7.813752E-2,-4.422448E-2,5.8245804E-2,-5.995216E-2,1.0492255E-2,8.803918E-3,-6.516735E-2,-8.905308E-2,-4.4300836E-2],"split_indices":[0,15,11,15,7,0,1,7,15,8,3,3,10,15,7,11,14,3,15,17,8,7,4,8,11,11,8,15,4,8,9,0,0,0,0,0,0,0,0,0,0,0,0,0,0,0,0,0,0,0,0,0,0,0,0,0,0,0,0,0,0,0,0],"split_type":[0,0,0,0,0,0,0,0,0,0,0,0,0,0,0,0,0,0,0,0,0,0,0,0,0,0,0,0,0,0,0,0,0,0,0,0,0,0,0,0,0,0,0,0,0,0,0,0,0,0,0,0,0,0,0,0,0,0,0,0,0,0,0],"sum_hessian":[1.3913136E5,1.1433068E5,2.4800686E4,8.311433E4,3.1216354E4,1.7087422E4,7.7132627E3,7.1500664E4,1.1613667E4,2.73597E4,3.8566536E3,1.3683589E4,3.403834E3,6.940925E3,7.7233795E2,5.983381E4,1.1666853E4,5.4277515E3,6.185915E3,1.4053796E4,1.3305903E4,3.5655312E3,2.9112234E2,1.1932881E4,1.7507079E3,1.3898293E2,3.264851E3,3.9282275E3,3.012697E3,3.1276654E2,4.5957138E2,5.370406E4,6.129751E3,3.375527E3,8.291325E3,5.358174E3,6.9577705E1,1.3168749E3,4.8690405E3,5.7308916E3,8.322904E3,2.8413706E3,1.0464532E4,2.494538E3,1.070993E3,5.54277E1,2.3569464E2,4.8757876E3,7.0570933E3,5.430788E2,1.207629E3,1.3151254E2,7.470385E0,2.8420713E3,4.2277988E2,3.8310312E3,9.719639E1,2.9716409E3,4.1056156E1,2.5335785E1,2.8743076E2,4.2676837E2,3.2803017E1],"tree_param":{"num_deleted":"0","num_feature":"24","num_nodes":"63","size_leaf_vector":"1"}},{"base_weights":[7.078312E-2,2.4981998E-1,-7.460729E-1,1.7146615E-2,4.9385455E-1,-8.58599E-1,-4.946998E-1,2.6217112E-1,-1.5776984E-1,1.1569115E0,2.831186E-1,-1.1393462E0,-7.684458E-1,6.518424E-2,-6.873256E-1,3.0429265E-1,-4.9317753E-1,-6.115844E-1,-4.7806412E-2,5.7651736E-2,5.9455287E-2,-3.4599584E-1,5.048026E-1,-1.2568098E0,-7.934255E-1,8.139417E-3,-8.298872E-1,-9.511243E-1,-4.6897462E-1,-1.636169E-2,1.807834E-2,-9.305376E-3,-4.3365907E-2,-6.3954875E-2,-2.5661891E-2,3.886503E-2,-1.0676077E-2,-2.0307133E-3,-3.7624415E-2,5.9282716E-2,1.4054808E-2,-5.7675708E-2,-7.267589E-2,-2.3115236E-2,-5.1828057E-2,-2.0551251E-2,2.585563E-2,-3.1112859E-2,-4.777624E-2,-3.3089627E-2,-5.8489203E-2,6.970475E-2,-3.2757584E-2],"categories":[],"categories_nodes":[],"categories_segments":[],"categories_sizes":[],"default_left":[0,0,0,0,0,0,0,0,0,0,0,0,0,0,0,0,0,0,0,0,0,0,0,0,0,0,0,0,0,0,0,0,0,0,0,0,0,0,0,0,0,0,0,0,0,0,0,0,0,0,0,0,0],"id":15,"left_children":[1,3,5,7,9,11,13,15,17,19,21,23,25,-1,27,29,31,33,35,-1,-1,37,39,41,43,45,47,49,51,-1,-1,-1,-1,-1,-1,-1,-1,-1,-1,-1,-1,-1,-1,-1,-1,-1,-1,-1,-1,-1,-1,-1,-1],"loss_changes":[2.01614E4,6.4203975E3,7.006045E2,2.4809539E3,7.711333E3,4.3239746E2,2.656516E3,7.6728503E2,1.6854651E3,2.9296875E-1,5.8410586E3,1.6799023E2,6.1841846E2,0E0,3.9843823E2,8.261858E2,1.4619516E2,4.3181152E2,3.717748E3,0E0,0E0,1.3546631E3,4.716541E3,6.1371582E1,8.461243E1,2.0314996E2,3.127119E2,1.9757153E2,1.3158083E3,0E0,0E0,0E0,0E0,0E0,0E0,0E0,0E0,0E0,0E0,0E0,0E0,0E0,0E0,0E0,0E0,0E0,0E0,0E0,0E0,0E0,0E0,0E0,0E0],"parents":[2147483647,0,0,1,1,2,2,3,3,4,4,5,5,6,6,7,7,8,8,9,9,10,10,11,11,12,12,14,14,15,15,16,16,17,17,18,18,21,21,22,22,23,23,24,24,25,25,26,26,27,27,28,28],"right_children":[2,4,6,8,10,12,14,16,18,20,22,24,26,-1,28,30,32,34,36,-1,-1,38,40,42,44,46,48,50,52,-1,-1,-1,-1,-1,-1,-1,-1,-1,-1,-1,-1,-1,-1,-1,-1,-1,-1,-1,-1,-1,-1,-1,-1],"split_conditions":[5.0599796E-1,3.3900023E-2,3.3900023E-2,2.4988507E-1,1E0,2E0,1E0,9.741088E-2,2E0,6.1782616E-1,1.0279689E0,2.3554546E-1,4E0,6.518424E-2,1.0279689E0,2.9576877E-2,1.18732944E-1,2.8890411E1,4E0,5.7651736E-2,5.9455287E-2,2.92588E-1,2E0,6.577838E-1,1.1620156E-1,3E0,1.18732944E-1,5.5403125E-1,2E0,-1.636169E-2,1.807834E-2,-9.305376E-3,-4.3365907E-2,-6.3954875E-2,-2.5661891E-2,3.886503E-2,-1.0676077E-2,-2.0307133E-3,-3.7624415E-2,5.9282716E-2,1.4054808E-2,-5.7675708E-2,-7.267589E-2,-2.3115236E-2,-5.1828057E-2,-2.0551251E-2,2.585563E-2,-3.1112859E-2,-4.777624E-2,-3.3089627E-2,-5.8489203E-2,6.970475E-2,-3.2757584E-2],"split_indices":[0,18,18,0,18,19,18,1,19,11,18,4,19,0,18,1,8,9,19,0,0,0,18,11,8,19,8,11,18,0,0,0,0,0,0,0,0,0,0,0,0,0,0,0,0,0,0,0,0,0,0,0,0],"split_type":[0,0,0,0,0,0,0,0,0,0,0,0,0,0,0,0,0,0,0,0,0,0,0,0,0,0,0,0,0,0,0,0,0,0,0,0,0,0,0,0,0,0,0,0,0,0,0,0,0,0,0,0,0],"sum_hessian":[1.3785597E5,1.1307345E5,2.478252E4,5.7884695E4,5.518876E4,1.7117518E4,7.665001E3,2.411029E4,3.3774402E4,1.3309E4,4.187976E4,4.1578545E3,1.2959663E4,7.4101373E2,6.9239873E3,2.2837377E4,1.2729138E3,6.5867197E3,2.7187684E4,1.1911435E4,1.3975647E3,1.0912041E4,3.096772E4,3.1019116E3,1.0559431E3,9.50224E2,1.2009438E4,3.1341445E3,3.789843E3,1.8985486E3,2.0938828E4,6.999435E2,5.7297034E2,8.442811E2,5.742439E3,4.546526E3,2.2641158E4,6.2315933E3,4.680448E3,7.657568E3,2.3310152E4,2.0383787E3,1.063533E3,4.4830637E2,6.076367E2,5.211905E2,4.2903354E2,4.529648E3,7.479791E3,1.3507936E3,1.783351E3,3.4372336E2,3.4461196E3],"tree_param":{"num_deleted":"0","num_feature":"24","num_nodes":"53","size_leaf_vector":"1"}},{"base_weights":[6.659154E-2,2.3739628E-1,-7.003055E-1,1.2426709E-2,4.7678056E-1,-5.692254E-1,-9.146227E-1,8.19516E-2,-6.28012E-1,1.1482133E0,2.7013683E-1,-4.1797107E-1,-7.91405E-1,-8.085261E-1,-1.1407046E0,1.704964E-1,-4.3753994E-1,-9.9294966E-1,-4.731103E-1,1.1554244E0,5.659938E-2,-3.292917E-1,4.8625574E-1,-8.6640126E-1,-2.2352609E-1,-1.0161223E0,-5.9002453E-1,-9.276714E-1,-5.412293E-1,-1.3954189E0,-1.0474705E0,1.1323494E-2,-2.9364316E-2,-3.6608595E-3,-3.5493426E-2,-6.8338715E-2,-4.137703E-2,2.1384774E-2,-3.2133717E-2,5.7553153E-2,5.964483E-2,1.0743442E-3,-3.2773126E-2,5.874878E-2,1.3512023E-2,-3.924936E-2,-6.546688E-2,1.2193328E-2,-1.7425783E-2,-5.7059225E-2,-3.649674E-2,-3.6346152E-2,-1.3574806E-2,-4.290201E-2,-6.886508E-2,6.170695E-2,-3.3121876E-2,-5.808955E-2,-8.303597E-2,-5.6690365E-2,-3.5238385E-2],"categories":[],"categories_nodes":[],"categories_segments":[],"categories_sizes":[],"default_left":[0,0,0,0,0,0,0,0,0,0,0,0,0,0,0,0,0,0,0,0,0,0,0,0,0,0,0,0,0,0,0,0,0,0,0,0,0,0,0,0,0,0,0,0,0,0,0,0,0,0,0,0,0,0,0,0,0,0,0,0,0],"id":16,"left_children":[1,3,5,7,9,11,13,15,17,19,21,23,25,27,29,31,33,35,37,39,-1,41,43,45,47,49,51,53,55,57,59,-1,-1,-1,-1,-1,-1,-1,-1,-1,-1,-1,-1,-1,-1,-1,-1,-1,-1,-1,-1,-1,-1,-1,-1,-1,-1,-1,-1,-1,-1],"loss_changes":[1.7881324E4,6.0124707E3,6.980205E2,2.562801E3,7.5043857E3,5.182578E2,2.2538916E2,2.3883184E3,3.181526E2,1.8164062E-1,5.358404E3,8.0054944E2,2.8220166E2,2.041128E2,7.0045654E1,1.8817015E3,7.501294E2,1.0266467E2,6.049545E2,5.7617188E-2,0E0,1.2541294E3,4.5225435E3,9.912402E1,3.7438232E2,1.04826416E2,1.4362122E2,1.3790894E2,4.2759912E2,4.7892334E1,6.453833E1,0E0,0E0,0E0,0E0,0E0,0E0,0E0,0E0,0E0,0E0,0E0,0E0,0E0,0E0,0E0,0E0,0E0,0E0,0E0,0E0,0E0,0E0,0E0,0E0,0E0,0E0,0E0,0E0,0E0,0E0],"parents":[2147483647,0,0,1,1,2,2,3,3,4,4,5,5,6,6,7,7,8,8,9,9,10,10,11,11,12,12,13,13,14,14,15,15,16,16,17,17,18,18,19,19,21,21,22,22,23,23,24,24,25,25,26,26,27,27,28,28,29,29,30,30],"right_children":[2,4,6,8,10,12,14,16,18,20,22,24,26,28,30,32,34,36,38,40,-1,42,44,46,48,50,52,54,56,58,60,-1,-1,-1,-1,-1,-1,-1,-1,-1,-1,-1,-1,-1,-1,-1,-1,-1,-1,-1,-1,-1,-1,-1,-1,-1,-1,-1,-1,-1,-1],"split_conditions":[5.0599796E-1,3.3900023E-2,6.6481686E-1,6.664813E-1,1E0,9.225E3,7.3029494E-1,3E0,2E0,8.370882E-1,1.0279689E0,4.2963177E-2,2.5263E4,3.3900023E-2,2.3529413E0,7.062051E-1,2.213352E-1,3.3512467E-1,4E0,6.1782616E-1,5.659938E-2,2.589165E-1,2E0,7.862666E-1,3.3333334E-1,5.067891E-1,5.067891E-1,2.7E5,1E0,6.0927564E-1,3E0,1.1323494E-2,-2.9364316E-2,-3.6608595E-3,-3.5493426E-2,-6.8338715E-2,-4.137703E-2,2.1384774E-2,-3.2133717E-2,5.7553153E-2,5.964483E-2,1.0743442E-3,-3.2773126E-2,5.874878E-2,1.3512023E-2,-3.924936E-2,-6.546688E-2,1.2193328E-2,-1.7425783E-2,-5.7059225E-2,-3.649674E-2,-3.6346152E-2,-1.3574806E-2,-4.290201E-2,-6.886508E-2,6.170695E-2,-3.3121876E-2,-5.808955E-2,-8.303597E-2,-5.6690365E-2,-3.5238385E-2],"split_indices":[0,18,7,7,18,5,7,20,19,15,18,14,6,18,2,11,0,14,19,11,0,0,18,11,14,14,14,12,18,11,23,0,0,0,0,0,0,0,0,0,0,0,0,0,0,0,0,0,0,0,0,0,0,0,0,0,0,0,0,0,0],"split_type":[0,0,0,0,0,0,0,0,0,0,0,0,0,0,0,0,0,0,0,0,0,0,0,0,0,0,0,0,0,0,0,0,0,0,0,0,0,0,0,0,0,0,0,0,0,0,0,0,0,0,0,0,0,0,0,0,0,0,0,0,0],"sum_hessian":[1.3650717E5,1.1164262E5,2.486456E4,5.7554684E4,5.408793E4,1.5430596E4,9.433966E3,5.191929E4,5.635394E3,1.2727811E4,4.136012E4,9.18236E3,6.2482354E3,6.4239062E3,3.0100598E3,4.435916E4,7.560131E3,1.6776222E3,3.957772E3,8.763057E3,3.9647537E3,1.0960232E4,3.0399887E4,2.7762654E3,6.4060947E3,2.9511018E3,3.2971333E3,4.4416206E3,1.9822855E3,8.0281573E2,2.207244E3,4.130861E4,3.050551E3,3.2344001E3,4.3257305E3,5.1238007E2,1.1652422E3,6.267345E2,3.3310376E3,7.8778906E3,8.8516656E2,5.281359E3,5.678874E3,7.257241E3,2.3142646E4,2.347546E3,4.287193E2,1.351452E3,5.054643E3,2.0515852E3,8.9951654E2,2.3051387E3,9.919947E2,3.848533E3,5.930878E2,1.2609895E2,1.8561865E3,4.2974988E2,3.7306586E2,1.7612296E3,4.4601434E2],"tree_param":{"num_deleted":"0","num_feature":"24","num_nodes":"61","size_leaf_vector":"1"}},{"base_weights":[6.3914105E-2,2.955033E-1,-4.7580716E-1,4.2917728E-1,-6.762371E-2,-1.7136417E-1,-6.71784E-1,3.4315437E-1,9.8795694E-1,-5.353344E-1,2.4471276E-2,-6.537481E-1,6.9532305E-2,-5.549884E-1,-8.974153E-1,1.2585625E-2,4.757071E-1,1.0669575E0,6.5391734E-2,-1.7236067E-1,-7.2350883E-1,6.079287E-1,-7.077233E-2,-4.060676E-1,-1.0833132E0,3.0517864E-1,-2.6297778E-1,-4.685844E-1,-9.0227485E-1,-8.463254E-1,-1.3727691E0,2.5288833E-3,-5.7338294E-2,5.723402E-2,1.6827436E-2,4.7310796E-2,5.813188E-2,-3.0653289E-2,5.3016286E-2,-5.949079E-3,-8.681792E-2,-2.4441766E-2,-4.8067406E-2,3.812073E-2,-1.2343614E-2,1.4521188E-2,-1.0254135E-2,-3.6894873E-2,3.3559617E-2,-1.0168797E-1,-5.002295E-2,3.9330623E-3,6.369817E-2,-1.1960388E-3,-3.6472816E-2,-2.7065335E-2,3.6588702E-3,-4.1296147E-2,-7.1336284E-2,-5.687976E-2,-3.7952628E-2,-7.9974584E-2,-4.6992984E-2],"categories":[],"categories_nodes":[],"categories_segments":[],"categories_sizes":[],"default_left":[0,0,0,0,0,0,0,0,0,0,0,0,0,0,0,0,0,0,0,0,0,0,0,0,0,0,0,0,0,0,0,0,0,0,0,0,0,0,0,0,0,0,0,0,0,0,0,0,0,0,0,0,0,0,0,0,0,0,0,0,0,0,0],"id":17,"left_children":[1,3,5,7,9,11,13,15,17,19,21,23,25,27,29,31,33,35,37,39,41,43,45,47,49,51,53,55,57,59,61,-1,-1,-1,-1,-1,-1,-1,-1,-1,-1,-1,-1,-1,-1,-1,-1,-1,-1,-1,-1,-1,-1,-1,-1,-1,-1,-1,-1,-1,-1,-1,-1],"loss_changes":[1.6944736E4,4.604627E3,2.4284346E3,3.3325283E3,1.0994717E3,1.8525808E3,6.5207324E2,2.6329214E3,6.740752E2,2.8669214E2,1.1851842E3,5.6449146E2,8.332468E2,4.8927148E2,2.039209E2,7.576157E2,3.992373E3,9.7328125E1,4.938544E2,1.1959595E2,1.5386853E2,3.9541956E2,8.895259E2,1.2049764E3,1.5083716E2,1.3656284E3,4.9184662E2,5.1497925E2,1.2896973E2,1.9303125E2,7.877515E1,0E0,0E0,0E0,0E0,0E0,0E0,0E0,0E0,0E0,0E0,0E0,0E0,0E0,0E0,0E0,0E0,0E0,0E0,0E0,0E0,0E0,0E0,0E0,0E0,0E0,0E0,0E0,0E0,0E0,0E0,0E0,0E0],"parents":[2147483647,0,0,1,1,2,2,3,3,4,4,5,5,6,6,7,7,8,8,9,9,10,10,11,11,12,12,13,13,14,14,15,15,16,16,17,17,18,18,19,19,20,20,21,21,22,22,23,23,24,24,25,25,26,26,27,27,28,28,29,29,30,30],"right_children":[2,4,6,8,10,12,14,16,18,20,22,24,26,28,30,32,34,36,38,40,42,44,46,48,50,52,54,56,58,60,62,-1,-1,-1,-1,-1,-1,-1,-1,-1,-1,-1,-1,-1,-1,-1,-1,-1,-1,-1,-1,-1,-1,-1,-1,-1,-1,-1,-1,-1,-1,-1,-1],"split_conditions":[4.2765737E-1,1E0,5.0599796E-1,8.370882E-1,2E0,5.064842E-1,6.528965E-1,3.3900023E-2,1E0,2.0151268E-1,4E0,4.6865967E-1,7E0,5.3527623E-1,9.741088E-2,2E0,1E0,9.063065E-1,1.0279689E0,3.591303E-1,1.1620156E-1,3E0,1.5895839E-1,4.6702772E-1,2.9339854E-2,5E0,6.127042E-1,5.0864965E-1,2.7936655E-1,2E0,1E0,2.5288833E-3,-5.7338294E-2,5.723402E-2,1.6827436E-2,4.7310796E-2,5.813188E-2,-3.0653289E-2,5.3016286E-2,-5.949079E-3,-8.681792E-2,-2.4441766E-2,-4.8067406E-2,3.812073E-2,-1.2343614E-2,1.4521188E-2,-1.0254135E-2,-3.6894873E-2,3.3559617E-2,-1.0168797E-1,-5.002295E-2,3.9330623E-3,6.369817E-2,-1.1960388E-3,-3.6472816E-2,-2.7065335E-2,3.6588702E-3,-4.1296147E-2,-7.1336284E-2,-5.687976E-2,-3.7952628E-2,-7.9974584E-2,-4.6992984E-2],"split_indices":[0,15,0,15,19,11,11,18,18,0,19,0,17,0,1,22,18,15,18,8,8,23,0,11,1,17,11,0,8,19,21,0,0,0,0,0,0,0,0,0,0,0,0,0,0,0,0,0,0,0,0,0,0,0,0,0,0,0,0,0,0,0,0],"split_type":[0,0,0,0,0,0,0,0,0,0,0,0,0,0,0,0,0,0,0,0,0,0,0,0,0,0,0,0,0,0,0,0,0,0,0,0,0,0,0,0,0,0,0,0,0,0,0,0,0,0,0,0,0,0,0,0,0,0,0,0,0,0,0],"sum_hessian":[1.3556267E5,9.485973E4,4.070294E4,6.933574E4,2.5523992E4,1.5941019E4,2.4761926E4,6.008708E4,9.24866E3,4.198222E3,2.132577E4,5.3087607E3,1.0632258E4,1.6318361E4,8.443563E3,1.7198191E4,4.2888887E4,8.519009E3,7.2965094E2,1.4340222E3,2.7642E3,2.9919365E3,1.8333832E4,3.3684885E3,1.9402719E3,6.222512E3,4.4097456E3,1.3069141E4,3.2492207E3,7.62665E3,8.1691394E2,1.6653414E4,5.447774E2,7.3841235E3,3.5504766E4,3.7710718E3,4.747937E3,4.3405048E2,2.9560046E2,1.387735E3,4.6287193E1,1.3928978E3,1.3713021E3,2.534069E3,4.5786746E2,4.9691943E3,1.3364639E4,2.575476E3,7.9301245E2,1.5369086E2,1.786581E3,5.044183E3,1.1783295E3,2.916284E3,1.4934615E3,1.1522448E4,1.5466918E3,2.8385466E3,4.1067404E2,1.7555465E3,5.8711035E3,5.343634E2,2.8255054E2],"tree_param":{"num_deleted":"0","num_feature":"24","num_nodes":"63","size_leaf_vector":"1"}},{"base_weights":[6.08952E-2,2.585316E-1,-3.94922E-1,3.7713468E-1,-3.358667E-1,-2.5962043E-1,-8.011746E-1,1.6690539E-1,5.86263E-1,-2.2650532E-1,-9.330155E-1,-9.433922E-2,-6.0054946E-1,-7.534163E-1,-1.3919594E0,4.2920533E-1,2.191904E-2,5.6532454E-2,4.277632E-1,-2.2284884E-2,-5.494764E-1,-1.208232E0,-6.383272E-1,-1.8745911E-1,9.268787E-1,-4.9559915E-1,-9.563438E-1,-8.389507E-1,-4.1425344E-1,-1.1836122E-1,-1.4619328E0,2.6235988E-2,-7.3469654E-3,1.1539347E-2,-9.620129E-3,-3.7984438E-3,2.9993644E-2,1.28854755E-2,-1.6538149E-2,-2.3257973E-2,-7.259466E-2,-1.5348014E-2,-6.4586185E-2,-5.3314287E-2,-2.12468E-2,-2.9161552E-2,1.1379605E-3,5.3026427E-2,-1.8660275E-2,-4.5429986E-2,-1.8595064E-2,-3.6154117E-2,-6.125262E-2,-3.985032E-2,-6.921806E-2,-2.501761E-3,-3.263415E-2,-1.098006E-1,1.6529348E-2,-6.228531E-2,-8.551405E-2],"categories":[],"categories_nodes":[],"categories_segments":[],"categories_sizes":[],"default_left":[0,0,0,0,0,0,0,0,0,0,0,0,0,0,0,0,0,0,0,0,0,0,0,0,0,0,0,0,0,0,0,0,0,0,0,0,0,0,0,0,0,0,0,0,0,0,0,0,0,0,0,0,0,0,0,0,0,0,0,0,0],"id":18,"left_children":[1,3,5,7,9,11,13,15,17,19,21,23,25,27,29,31,33,-1,35,37,39,41,43,45,47,49,51,53,55,57,59,-1,-1,-1,-1,-1,-1,-1,-1,-1,-1,-1,-1,-1,-1,-1,-1,-1,-1,-1,-1,-1,-1,-1,-1,-1,-1,-1,-1,-1,-1],"loss_changes":[1.2136083E4,6.624876E3,2.2394033E3,3.4441309E3,1.02064087E3,1.7223525E3,2.8615674E2,1.4857715E3,3.3881592E3,8.715265E2,1.95448E2,1.9579716E3,3.7218848E2,2.729292E2,6.7569824E1,7.654199E2,1.1264216E3,0E0,2.637228E3,6.993613E2,3.8879382E2,9.365698E1,1.0643805E2,1.569809E3,2.9935706E2,3.9348608E2,1.4153589E2,1.7097314E2,1.6489319E2,3.866754E1,3.655847E1,0E0,0E0,0E0,0E0,0E0,0E0,0E0,0E0,0E0,0E0,0E0,0E0,0E0,0E0,0E0,0E0,0E0,0E0,0E0,0E0,0E0,0E0,0E0,0E0,0E0,0E0,0E0,0E0,0E0,0E0],"parents":[2147483647,0,0,1,1,2,2,3,3,4,4,5,5,6,6,7,7,8,8,9,9,10,10,11,11,12,12,13,13,14,14,15,15,16,16,18,18,19,19,20,20,21,21,22,22,23,23,24,24,25,25,26,26,27,27,28,28,29,29,30,30],"right_children":[2,4,6,8,10,12,14,16,18,20,22,24,26,28,30,32,34,-1,36,38,40,42,44,46,48,50,52,54,56,58,60,-1,-1,-1,-1,-1,-1,-1,-1,-1,-1,-1,-1,-1,-1,-1,-1,-1,-1,-1,-1,-1,-1,-1,-1,-1,-1,-1,-1,-1,-1],"split_conditions":[5.924167E-1,6.075573E-1,7.0405555E-1,3.3900023E-2,3E0,1E0,9.741088E-2,5.0599796E-1,1E0,7.062051E-1,1.9572E-1,8.5892606E-1,6.528965E-1,5.812721E-2,2.7272728E-1,3E0,1.18732944E-1,5.6532454E-2,1.0279689E0,2.1069E4,3.0756703E-1,8.3986446E-2,3.988864E-2,3.3512467E-1,1E0,2E0,7E0,3.6735037E-1,7.2373325E-1,1.029682E-1,5.90472E3,2.6235988E-2,-7.3469654E-3,1.1539347E-2,-9.620129E-3,-3.7984438E-3,2.9993644E-2,1.28854755E-2,-1.6538149E-2,-2.3257973E-2,-7.259466E-2,-1.5348014E-2,-6.4586185E-2,-5.3314287E-2,-2.12468E-2,-2.9161552E-2,1.1379605E-3,5.3026427E-2,-1.8660275E-2,-4.5429986E-2,-1.8595064E-2,-3.6154117E-2,-6.125262E-2,-3.985032E-2,-6.921806E-2,-2.501761E-3,-3.263415E-2,-1.098006E-1,1.6529348E-2,-6.228531E-2,-8.551405E-2],"split_indices":[7,11,7,18,20,15,1,3,18,11,4,15,11,1,15,23,8,0,18,5,8,7,1,14,18,19,17,8,7,1,5,0,0,0,0,0,0,0,0,0,0,0,0,0,0,0,0,0,0,0,0,0,0,0,0,0,0,0,0,0,0],"split_type":[0,0,0,0,0,0,0,0,0,0,0,0,0,0,0,0,0,0,0,0,0,0,0,0,0,0,0,0,0,0,0,0,0,0,0,0,0,0,0,0,0,0,0,0,0,0,0,0,0,0,0,0,0,0,0,0,0,0,0,0,0],"sum_hessian":[1.3471439E5,9.397046E4,4.0743934E4,7.83394E4,1.56310625E4,3.0565725E4,1.017821E4,3.9067758E4,3.9271637E4,1.3212682E4,2.4183809E3,2.0586658E4,9.979064E3,9.419061E3,7.5914966E2,1.3906698E4,2.516106E4,8.854318E3,3.0417318E4,8.095084E3,5.117598E3,1.2489015E3,1.1694794E3,1.8867078E4,1.7195806E3,7.7078413E3,2.2712236E3,7.520877E3,1.8981837E3,3.967677E1,7.194729E2,1.1929148E4,1.9775497E3,1.274262E4,1.2418441E4,7.7462104E3,2.267111E4,4.24354E3,3.8515435E3,4.681682E3,4.3591583E2,1.0628273E2,1.1426188E3,3.877818E2,7.8169763E2,6.544384E3,1.2322695E4,1.5594518E3,1.6012883E2,1.7750354E3,5.9328057E3,1.2177797E3,1.053444E3,6.9860806E3,5.3479645E2,7.514697E2,1.146714E3,6.358646E0,3.3318123E1,3.8782538E2,3.3164752E2],"tree_param":{"num_deleted":"0","num_feature":"24","num_nodes":"61","size_leaf_vector":"1"}},{"base_weights":[5.8585964E-2,3.003523E-1,-3.9781877E-1,9.3978204E-2,5.100497E-1,-1.3959081E-1,-6.231293E-1,1.8848218E-1,-3.2686102E-1,5.627003E-2,3.4188595E-1,1.4183441E-1,-3.8189998E-1,-5.102653E-1,-8.6221594E-1,2.7358115E-1,-3.0300534E-1,-1.8756296E-1,-6.642677E-1,-1.5884697E-1,5.23293E-1,-1.5774927E-1,4.3462932E-1,-3.276428E-1,-1.4110311E0,-4.558868E-1,-1.0183E0,-9.559903E-1,-6.360278E-1,2.4544401E-2,5.048385E-3,2.0049265E-2,-2.767556E-2,-2.9456837E-2,-4.809018E-3,-2.6230598E-2,-5.4478746E-2,-2.6731414E-3,-4.6524286E-2,5.7844233E-2,1.6530847E-2,-1.8301593E-3,-4.794942E-2,2.7940953E-2,-2.4383482E-2,-3.7796102E-2,-1.0524905E-2,-4.5001756E-2,-8.9382626E-2,-1.5263759E-2,-3.3432018E-2,-6.949597E-2,-2.4343083E-2,-2.3282303E-2,-5.0247747E-2,6.165525E-2,-3.5979357E-2],"categories":[],"categories_nodes":[],"categories_segments":[],"categories_sizes":[],"default_left":[0,0,0,0,0,0,0,0,0,0,0,0,0,0,0,0,0,0,0,0,0,0,0,0,0,0,0,0,0,0,0,0,0,0,0,0,0,0,0,0,0,0,0,0,0,0,0,0,0,0,0,0,0,0,0,0,0],"id":19,"left_children":[1,3,5,7,9,11,13,15,17,-1,19,21,23,25,27,29,31,33,35,37,39,41,43,45,47,49,51,53,55,-1,-1,-1,-1,-1,-1,-1,-1,-1,-1,-1,-1,-1,-1,-1,-1,-1,-1,-1,-1,-1,-1,-1,-1,-1,-1,-1,-1],"loss_changes":[1.4768645E4,3.7863867E3,2.6964966E3,1.7538845E3,4.4904004E3,1.4728357E3,6.674531E2,1.5062859E3,3.7996973E2,0E0,3.0962307E3,8.766205E2,6.4756824E2,4.641089E2,1.6771582E2,1.1514143E3,9.376335E2,2.1004587E2,1.3976709E2,7.371209E2,3.0540835E3,4.7947318E2,5.791609E2,5.530065E2,1.1018982E2,4.86604E2,3.202744E2,1.3417725E2,3.646079E2,0E0,0E0,0E0,0E0,0E0,0E0,0E0,0E0,0E0,0E0,0E0,0E0,0E0,0E0,0E0,0E0,0E0,0E0,0E0,0E0,0E0,0E0,0E0,0E0,0E0,0E0,0E0,0E0],"parents":[2147483647,0,0,1,1,2,2,3,3,4,4,5,5,6,6,7,7,8,8,10,10,11,11,12,12,13,13,14,14,15,15,16,16,17,17,18,18,19,19,20,20,21,21,22,22,23,23,24,24,25,25,26,26,27,27,28,28],"right_children":[2,4,6,8,10,12,14,16,18,-1,20,22,24,26,28,30,32,34,36,38,40,42,44,46,48,50,52,54,56,-1,-1,-1,-1,-1,-1,-1,-1,-1,-1,-1,-1,-1,-1,-1,-1,-1,-1,-1,-1,-1,-1,-1,-1,-1,-1,-1,-1],"split_conditions":[4.0140742E-1,3.3900023E-2,5.0599796E-1,5.907577E-1,1E0,5.90472E3,6.7754215E-1,5.3728767E1,6.905336E-1,5.627003E-2,1.0279689E0,5.06365E-1,9.741088E-2,9.2532836E-2,3.3900023E-2,7E0,1.18732944E-1,1.6011E4,1.909659E-1,5.4907658E1,2E0,4.8665315E-1,6.972125E-1,1.1442857E-1,1.18732944E-1,1.2357E4,1E0,1E0,1E0,2.4544401E-2,5.048385E-3,2.0049265E-2,-2.767556E-2,-2.9456837E-2,-4.809018E-3,-2.6230598E-2,-5.4478746E-2,-2.6731414E-3,-4.6524286E-2,5.7844233E-2,1.6530847E-2,-1.8301593E-3,-4.794942E-2,2.7940953E-2,-2.4383482E-2,-3.7796102E-2,-1.0524905E-2,-4.5001756E-2,-8.9382626E-2,-1.5263759E-2,-3.3432018E-2,-6.949597E-2,-2.4343083E-2,-2.3282303E-2,-5.0247747E-2,6.165525E-2,-3.5979357E-2],"split_indices":[0,18,0,7,18,5,7,9,7,0,18,7,1,1,18,17,8,6,8,9,18,0,7,4,8,5,21,23,18,0,0,0,0,0,0,0,0,0,0,0,0,0,0,0,0,0,0,0,0,0,0,0,0,0,0,0,0],"split_type":[0,0,0,0,0,0,0,0,0,0,0,0,0,0,0,0,0,0,0,0,0,0,0,0,0,0,0,0,0,0,0,0,0,0,0,0,0,0,0,0,0,0,0,0,0,0,0,0,0,0,0,0,0,0,0,0,0],"sum_hessian":[1.3384061E5,8.7493805E4,4.63468E4,4.4097055E4,4.339675E4,2.15966E4,2.4750203E4,3.601096E4,8.086096E3,9.312914E3,3.4083836E4,9.992001E3,1.1604599E4,1.6815402E4,7.934801E3,3.0696445E4,5.3145156E3,5.7243564E3,2.3617397E3,9.064228E3,2.501961E4,4.9389736E3,5.0530273E3,1.1024681E4,5.7991754E2,1.5191272E4,1.6241296E3,5.606994E3,2.3278066E3,1.3588165E4,1.710828E4,1.3946273E3,3.9198882E3,1.0601522E3,4.664204E3,1.7796119E3,5.8212787E2,7.9759995E3,1.0882279E3,5.833118E3,1.918649E4,4.291197E3,6.477764E2,4.4537183E3,5.993096E2,2.3666807E3,8.658E3,2.4750073E2,3.324168E2,8.89605E3,6.2952227E3,9.548299E2,6.692998E2,5.1002167E2,5.096972E3,9.902237E1,2.2287844E3],"tree_param":{"num_deleted":"0","num_feature":"24","num_nodes":"57","size_leaf_vector":"1"}},{"base_weights":[6.009031E-2,2.9688725E-1,-3.5719797E-1,4.185331E-1,-2.8967295E-2,-1.2303737E-1,-5.7431823E-1,3.382061E-1,9.731628E-1,5.98468E-2,-4.3235034E-1,-3.343953E-2,-8.6783856E-1,-5.195172E-1,-1.0716903E0,4.220836E-1,-1.6932529E-1,7.978048E-1,1.1334352E0,1.3353598E-1,-4.5557734E-1,-3.3637318E-1,-9.0621126E-1,-3.767496E-1,1.8140171E-1,-1.3195395E0,-6.125796E-1,-3.7997726E-1,-7.3476166E-1,-1.2418514E0,-4.858756E-1,2.4544815E-2,-1.43583985E-2,-3.5960767E-2,6.9360493E-4,5.773462E-2,3.370237E-2,5.277128E-2,5.7742205E-2,-1.529207E-2,1.0951787E-2,-1.1508566E-1,-2.0898173E-2,-1.4021653E-3,-2.4781032E-2,-6.441175E-2,-3.2278012E-2,-1.1010702E-2,-4.452784E-2,-1.0755911E-2,2.9924748E-2,-5.363288E-2,-9.681752E-2,-2.8179273E-2,-1.1719098E-1,-2.1950455E-2,6.710877E-2,-5.2078612E-2,-3.2313075E-2,-6.7599446E-2,-5.045859E-2,-5.4355886E-2,-4.103511E-3],"categories":[],"categories_nodes":[],"categories_segments":[],"categories_sizes":[],"default_left":[0,0,0,0,0,0,0,0,0,0,0,0,0,0,0,0,0,0,0,0,0,0,0,0,0,0,0,0,0,0,0,0,0,0,0,0,0,0,0,0,0,0,0,0,0,0,0,0,0,0,0,0,0,0,0,0,0,0,0,0,0,0,0],"id":20,"left_children":[1,3,5,7,9,11,13,15,17,19,21,23,25,27,29,31,33,35,37,39,41,43,45,47,49,51,53,55,57,59,61,-1,-1,-1,-1,-1,-1,-1,-1,-1,-1,-1,-1,-1,-1,-1,-1,-1,-1,-1,-1,-1,-1,-1,-1,-1,-1,-1,-1,-1,-1,-1,-1],"loss_changes":[1.3182593E4,3.3737456E3,2.455458E3,2.760789E3,8.289421E2,1.5507362E3,6.8251074E2,2.3046963E3,2.1943555E2,7.203025E2,1.8957788E2,1.5301011E3,2.869032E2,6.777798E2,2.4723169E2,2.2675947E3,7.7355396E2,1.6472266E2,5.618164E0,6.2336896E2,1.6376633E2,1.7053656E2,6.913129E1,6.420375E2,2.1104678E3,1.349906E2,1.3407019E2,1.3931936E3,2.4039111E2,4.7991943E1,1.3617728E2,0E0,0E0,0E0,0E0,0E0,0E0,0E0,0E0,0E0,0E0,0E0,0E0,0E0,0E0,0E0,0E0,0E0,0E0,0E0,0E0,0E0,0E0,0E0,0E0,0E0,0E0,0E0,0E0,0E0,0E0,0E0,0E0],"parents":[2147483647,0,0,1,1,2,2,3,3,4,4,5,5,6,6,7,7,8,8,9,9,10,10,11,11,12,12,13,13,14,14,15,15,16,16,17,17,18,18,19,19,20,20,21,21,22,22,23,23,24,24,25,25,26,26,27,27,28,28,29,29,30,30],"right_children":[2,4,6,8,10,12,14,16,18,20,22,24,26,28,30,32,34,36,38,40,42,44,46,48,50,52,54,56,58,60,62,-1,-1,-1,-1,-1,-1,-1,-1,-1,-1,-1,-1,-1,-1,-1,-1,-1,-1,-1,-1,-1,-1,-1,-1,-1,-1,-1,-1,-1,-1,-1,-1],"split_conditions":[3.944954E-1,1E0,5.0599796E-1,8.370882E-1,5.924167E-1,3E0,9.2532836E-2,6.1857396E-1,9.063065E-1,5.5457535E1,7.1542484E-1,5.064842E-1,3.3512467E-1,1E0,1.0769377E-1,6.1782616E-1,3.3512467E-1,8.5714287E-1,9.257885E-1,2E0,1.0909091E0,2.1885908E-1,2.9411764E0,4.6865967E-1,5.06365E-1,5.2531506E1,2.8008225E6,9.063065E-1,2E0,1E0,1E0,2.4544815E-2,-1.43583985E-2,-3.5960767E-2,6.9360493E-4,5.773462E-2,3.370237E-2,5.277128E-2,5.7742205E-2,-1.529207E-2,1.0951787E-2,-1.1508566E-1,-2.0898173E-2,-1.4021653E-3,-2.4781032E-2,-6.441175E-2,-3.2278012E-2,-1.1010702E-2,-4.452784E-2,-1.0755911E-2,2.9924748E-2,-5.363288E-2,-9.681752E-2,-2.8179273E-2,-1.1719098E-1,-2.1950455E-2,6.710877E-2,-5.2078612E-2,-3.2313075E-2,-6.7599446E-2,-5.045859E-2,-5.4355886E-2,-4.103511E-3],"split_indices":[0,15,0,15,7,20,1,7,15,9,7,11,14,15,1,11,14,15,15,17,2,0,2,0,7,9,5,15,19,21,21,0,0,0,0,0,0,0,0,0,0,0,0,0,0,0,0,0,0,0,0,0,0,0,0,0,0,0,0,0,0,0,0],"split_type":[0,0,0,0,0,0,0,0,0,0,0,0,0,0,0,0,0,0,0,0,0,0,0,0,0,0,0,0,0,0,0,0,0,0,0,0,0,0,0,0,0,0,0,0,0,0,0,0,0,0,0,0,0,0,0,0,0,0,0,0,0,0,0],"sum_hessian":[1.3340798E5,8.511079E4,4.82972E4,6.1974574E4,2.3136215E4,2.3237504E4,2.5059695E4,5.413571E4,7.838863E3,1.896212E4,4.1740967E3,2.0743191E4,2.4943125E3,2.2574459E4,2.485235E3,4.6457973E4,7.6777383E3,3.746121E3,4.092742E3,1.6590893E4,2.3712263E3,3.4724802E3,7.016165E2,7.984091E3,1.27591E4,8.991052E2,1.5952072E3,1.36973955E4,8.877063E3,1.9249706E3,5.6026447E2,4.234947E4,4.1085024E3,1.9179235E3,5.759815E3,9.624133E2,2.7837078E3,8.921609E2,3.2005808E3,2.7021506E3,1.3888742E4,4.6145718E1,2.3250806E3,1.1830577E3,2.2894226E3,2.8295728E2,4.1865924E2,6.1207754E3,1.8633158E3,6.541114E3,6.2179863E3,6.440569E2,2.5504836E2,1.5525942E3,4.2612873E1,1.3244158E4,4.5323743E2,1.9849412E3,6.8921226E3,1.3032667E3,6.217039E2,2.244217E2,3.3584274E2],"tree_param":{"num_deleted":"0","num_feature":"24","num_nodes":"63","size_leaf_vector":"1"}},{"base_weights":[5.5591695E-2,3.3241534E-1,-2.658258E-1,1.4072719E-1,5.251554E-1,-7.323361E-2,-5.4366076E-1,2.0864487E-1,-3.5078013E-1,5.5727433E-2,3.7395287E-1,9.68467E-3,-7.442473E-1,-8.1922275E-1,-4.6230376E-1,-1.8400422E-1,2.8896758E-1,-2.5503823E-1,-9.875526E-1,-1.11603096E-1,5.4503006E-1,5.2516744E-2,-1.1938785E0,-1.0726435E0,-5.681839E-1,-1.0101306E0,-6.9105285E-1,2.7640057E-1,-5.2665746E-1,-5.281325E-3,-5.4273583E-2,4.0452436E-2,8.802148E-3,-6.7299805E-3,-3.4550212E-2,-9.282902E-2,-3.4193315E-2,1.0341008E-4,-4.586703E-2,5.7197835E-2,1.8509129E-2,5.5842437E-3,-4.0853202E-2,-4.036394E-2,-7.6203115E-2,-4.385302E-2,-7.789504E-2,-2.4896016E-2,-7.552113E-2,-4.865475E-2,-8.2079284E-2,-3.2576676E-2,-8.067676E-2,-2.7830189E-3,3.437585E-2,-1.5846042E-2,-3.2856908E-2],"categories":[],"categories_nodes":[],"categories_segments":[],"categories_sizes":[],"default_left":[0,0,0,0,0,0,0,0,0,0,0,0,0,0,0,0,0,0,0,0,0,0,0,0,0,0,0,0,0,0,0,0,0,0,0,0,0,0,0,0,0,0,0,0,0,0,0,0,0,0,0,0,0,0,0,0,0],"id":21,"left_children":[1,3,5,7,9,11,13,15,17,-1,19,21,23,25,27,29,31,33,35,37,39,41,43,45,47,49,51,53,55,-1,-1,-1,-1,-1,-1,-1,-1,-1,-1,-1,-1,-1,-1,-1,-1,-1,-1,-1,-1,-1,-1,-1,-1,-1,-1,-1,-1],"loss_changes":[1.1780703E4,2.6281265E3,3.2782832E3,1.1907046E3,3.16063E3,2.0133428E3,5.619414E2,9.8838855E2,2.6376343E2,0E0,2.345073E3,1.6603568E3,2.2949316E2,1.3916577E2,9.2083936E2,3.7594513E2,1.5277646E3,1.976427E2,1.480169E2,6.7371735E2,2.1856606E3,1.6002802E3,1.4005383E2,1.303523E2,1.7090955E2,5.2049072E1,1.2374255E2,2.1200305E2,4.873462E2,0E0,0E0,0E0,0E0,0E0,0E0,0E0,0E0,0E0,0E0,0E0,0E0,0E0,0E0,0E0,0E0,0E0,0E0,0E0,0E0,0E0,0E0,0E0,0E0,0E0,0E0,0E0,0E0],"parents":[2147483647,0,0,1,1,2,2,3,3,4,4,5,5,6,6,7,7,8,8,10,10,11,11,12,12,13,13,14,14,15,15,16,16,17,17,18,18,19,19,20,20,21,21,22,22,23,23,24,24,25,25,26,26,27,27,28,28],"right_children":[2,4,6,8,10,12,14,16,18,-1,20,22,24,26,28,30,32,34,36,38,40,42,44,46,48,50,52,54,56,-1,-1,-1,-1,-1,-1,-1,-1,-1,-1,-1,-1,-1,-1,-1,-1,-1,-1,-1,-1,-1,-1,-1,-1,-1,-1,-1,-1],"split_conditions":[3.376727E-1,3.3900023E-2,5.0599796E-1,6.313545E-1,1E0,3E0,2E0,2E0,2.529997E-1,5.5727433E-2,1.0279689E0,7.3470956E-1,1.5033333E-1,1.434E-1,4E0,6.3764894E-1,4E0,5.4577496E1,3.32946E5,5.7796913E-1,2E0,1E0,7.823458E-1,5.513813E-1,9.171975E-2,1.31211E6,8.411922E-1,3E0,1.18732944E-1,-5.281325E-3,-5.4273583E-2,4.0452436E-2,8.802148E-3,-6.7299805E-3,-3.4550212E-2,-9.282902E-2,-3.4193315E-2,1.0341008E-4,-4.586703E-2,5.7197835E-2,1.8509129E-2,5.5842437E-3,-4.0853202E-2,-4.036394E-2,-7.6203115E-2,-4.385302E-2,-7.789504E-2,-2.4896016E-2,-7.552113E-2,-4.865475E-2,-8.2079284E-2,-3.2576676E-2,-8.067676E-2,-2.7830189E-3,3.437585E-2,-1.5846042E-2,-3.2856908E-2],"split_indices":[0,18,0,11,18,20,19,19,8,0,18,3,4,4,19,3,19,9,10,11,18,14,3,11,1,10,3,19,8,0,0,0,0,0,0,0,0,0,0,0,0,0,0,0,0,0,0,0,0,0,0,0,0,0,0,0,0],"split_type":[0,0,0,0,0,0,0,0,0,0,0,0,0,0,0,0,0,0,0,0,0,0,0,0,0,0,0,0,0,0,0,0,0,0,0,0,0,0,0,0,0,0,0,0,0,0,0,0,0,0,0,0,0,0,0,0,0],"sum_hessian":[1.324012E5,7.113528E4,6.1265926E4,3.5665832E4,3.546945E4,3.6184492E4,2.5081434E4,3.1336285E4,4.329549E3,7.2402627E3,2.8229188E4,3.2205758E4,3.9787334E3,5.715058E3,1.9366377E4,5.321483E3,2.60148E4,3.764881E3,5.646679E2,7.354837E3,2.0874352E4,3.109994E4,1.1058197E3,1.3868558E3,2.5918777E3,2.29291E3,3.4221482E3,1.5516769E3,1.78147E4,4.8968457E3,4.2463705E2,4.6397925E3,2.137501E4,2.950965E3,8.139159E2,1.4490233E2,4.1976553E2,6.446394E3,9.084427E2,4.7156646E3,1.6158687E4,2.911946E4,1.9804784E3,5.1097885E2,5.948409E2,9.9045844E2,3.9639743E2,2.413434E3,1.784435E2,2.1682786E3,1.2463124E2,3.2832017E3,1.3894661E2,8.5884656E2,6.928303E2,6.833634E3,1.0981065E4],"tree_param":{"num_deleted":"0","num_feature":"24","num_nodes":"57","size_leaf_vector":"1"}},{"base_weights":[5.77227E-2,2.7439883E-1,-3.1482708E-1,3.935086E-1,-3.7414297E-2,-1.03439584E-1,-5.123812E-1,3.234444E-1,1.0122001E0,6.0383834E-2,-3.6473915E-1,1.5270497E-1,-3.159594E-1,-3.2565534E-1,-6.3387007E-1,3.9529285E-1,-2.470331E-1,1.07183E0,3.2603532E-2,1.6037352E-1,-3.2901332E-1,-6.868508E-1,-2.4847333E-1,-5.1925075E-1,3.5471782E-1,-7.074013E-1,-1.4900254E-1,-1.1171573E-1,-5.024213E-1,-7.684389E-1,-4.8236853E-1,2.5866976E-2,1.8319428E-3,2.468249E-2,-2.964205E-2,4.765361E-2,5.6723326E-2,-2.8621614E-2,5.2303344E-2,1.2240548E-2,-9.836941E-3,-6.840316E-3,-2.976245E-2,-2.0447329E-2,-5.2091617E-2,-1.0027863E-2,-6.513523E-2,-4.1150827E-2,-9.358945E-3,2.0144537E-2,-5.6857944E-2,-2.8093329E-2,-6.232054E-2,-2.1560548E-3,-4.074582E-2,-2.6579702E-2,3.728141E-2,-1.9126257E-2,-4.148642E-2,-3.3449337E-2,-4.904918E-2,-2.1437366E-2,-4.934303E-2],"categories":[],"categories_nodes":[],"categories_segments":[],"categories_sizes":[],"default_left":[0,0,0,0,0,0,0,0,0,0,0,0,0,0,0,0,0,0,0,0,0,0,0,0,0,0,0,0,0,0,0,0,0,0,0,0,0,0,0,0,0,0,0,0,0,0,0,0,0,0,0,0,0,0,0,0,0,0,0,0,0,0,0],"id":22,"left_children":[1,3,5,7,9,11,13,15,17,19,21,23,25,27,29,31,33,35,37,39,41,43,45,47,49,51,53,55,57,59,61,-1,-1,-1,-1,-1,-1,-1,-1,-1,-1,-1,-1,-1,-1,-1,-1,-1,-1,-1,-1,-1,-1,-1,-1,-1,-1,-1,-1,-1,-1,-1,-1],"loss_changes":[1.0646196E4,3.097025E3,2.02527E3,2.6152441E3,7.378846E2,1.2754927E3,5.6849414E2,2.221733E3,3.5847852E2,6.9108655E2,1.9841681E2,1.4425044E3,8.3681226E2,3.737152E2,3.0924658E2,2.1071797E3,1.5533599E3,4.1953125E1,2.1717316E2,4.258938E2,1.8549768E2,1.3825696E2,1.9663768E2,2.4762677E2,5.8761536E2,2.9963318E2,6.33008E2,1.6105548E3,2.1205371E2,1.693169E2,1.9290259E2,0E0,0E0,0E0,0E0,0E0,0E0,0E0,0E0,0E0,0E0,0E0,0E0,0E0,0E0,0E0,0E0,0E0,0E0,0E0,0E0,0E0,0E0,0E0,0E0,0E0,0E0,0E0,0E0,0E0,0E0,0E0,0E0],"parents":[2147483647,0,0,1,1,2,2,3,3,4,4,5,5,6,6,7,7,8,8,9,9,10,10,11,11,12,12,13,13,14,14,15,15,16,16,17,17,18,18,19,19,20,20,21,21,22,22,23,23,24,24,25,25,26,26,27,27,28,28,29,29,30,30],"right_children":[2,4,6,8,10,12,14,16,18,20,22,24,26,28,30,32,34,36,38,40,42,44,46,48,50,52,54,56,58,60,62,-1,-1,-1,-1,-1,-1,-1,-1,-1,-1,-1,-1,-1,-1,-1,-1,-1,-1,-1,-1,-1,-1,-1,-1,-1,-1,-1,-1,-1,-1,-1,-1],"split_conditions":[3.944954E-1,1E0,5.0599796E-1,8.5892606E-1,5.556691E-1,5.90472E3,1.18732944E-1,5.4739727E1,1E0,5.937176E-1,1.2055556E-1,4.2963177E-2,3.3512467E-1,7E0,3.9455433E0,5.4593605E-1,1.18732944E-1,9.063065E-1,1.0279689E0,3E0,2.67885E4,1.1727792E-1,6.847004E-1,5.133052E-1,1E0,3.3333334E-1,1E0,2E0,6.6263777E-1,5.64137E1,7.419908E-1,2.5866976E-2,1.8319428E-3,2.468249E-2,-2.964205E-2,4.765361E-2,5.6723326E-2,-2.8621614E-2,5.2303344E-2,1.2240548E-2,-9.836941E-3,-6.840316E-3,-2.976245E-2,-2.0447329E-2,-5.2091617E-2,-1.0027863E-2,-6.513523E-2,-4.1150827E-2,-9.358945E-3,2.0144537E-2,-5.6857944E-2,-2.8093329E-2,-6.232054E-2,-2.1560548E-3,-4.074582E-2,-2.6579702E-2,3.728141E-2,-1.9126257E-2,-4.148642E-2,-3.3449337E-2,-4.904918E-2,-2.1437366E-2,-4.934303E-2],"split_indices":[0,15,0,15,7,5,8,9,18,11,4,14,14,17,2,7,8,15,18,20,5,8,3,7,14,14,14,17,11,9,3,0,0,0,0,0,0,0,0,0,0,0,0,0,0,0,0,0,0,0,0,0,0,0,0,0,0,0,0,0,0,0,0],"split_type":[0,0,0,0,0,0,0,0,0,0,0,0,0,0,0,0,0,0,0,0,0,0,0,0,0,0,0,0,0,0,0,0,0,0,0,0,0,0,0,0,0,0,0,0,0,0,0,0,0,0,0,0,0,0,0,0,0,0,0,0,0,0,0],"sum_hessian":[1.3188405E5,8.338648E4,4.8497574E4,6.0337746E4,2.3048732E4,2.3429252E4,2.5068322E4,5.4201207E4,6.1365356E3,1.7747076E4,5.3016562E3,1.062432E4,1.2804933E4,9.882622E3,1.5185699E4,4.8138715E4,6.0624946E3,5.784338E3,3.5219772E2,1.4121527E4,3.6255486E3,1.4047958E3,3.8968608E3,2.455388E3,8.168932E3,3.827607E3,8.977325E3,4.4719097E3,5.410713E3,8.0401196E3,7.1455796E3,3.5916285E4,1.222243E4,1.9294324E3,4.133062E3,2.0029664E3,3.7813716E3,2.2080981E2,1.313879E2,1.1421327E4,2.7002007E3,2.106378E3,1.5191708E3,7.8914795E2,6.156478E2,3.7285825E3,1.682783E2,1.2815762E3,1.1738119E3,7.914114E3,2.5481802E2,3.0154626E3,8.121442E2,7.7466587E3,1.230667E3,3.002054E3,1.4698555E3,3.961676E3,1.4490371E3,5.4800747E3,2.560045E3,6.4607334E3,6.84846E2],"tree_param":{"num_deleted":"0","num_feature":"24","num_nodes":"63","size_leaf_vector":"1"}},{"base_weights":[5.2254494E-2,2.4937752E-1,-3.3486646E-1,3.0999804E-1,-3.391097E-1,-1.10836454E-1,-5.0805056E-1,3.691553E-1,-3.3077073E-1,-2.8082567E-1,-1.3143157E0,-4.5000374E-1,7.998851E-2,-4.3110007E-1,-8.2189E-1,4.7579953E-1,7.404351E-2,-1.8039976E-1,-6.8292356E-1,-1.2609003E-1,-5.952939E-1,-1.4644208E0,-1.9539101E-1,-2.8303063E-1,-8.6641616E-1,-3.6756077E-1,5.7349116E-1,-3.2980737E-1,-6.7300135E-1,-9.7274995E-1,-6.596693E-1,2.0181281E-2,4.89391E-2,-1.5696602E-2,7.2678174E-3,3.4270694E-3,-2.5760157E-2,-2.3750827E-2,-4.956007E-2,-3.5095008E-3,-4.8200373E-2,-1.7258348E-2,-4.211181E-2,-5.9281956E-2,-1.07742146E-1,2.186998E-2,-5.9415277E-2,-2.5972048E-2,2.5362203E-2,-6.705885E-2,-3.5587005E-2,-1.0088991E-2,-4.185251E-2,-5.6748833E-3,6.413195E-2,-9.197348E-3,-2.7306506E-2,-4.300982E-2,-2.6689112E-2,-3.1400375E-2,-5.1972415E-2,-2.329094E-2,-4.3759283E-2],"categories":[],"categories_nodes":[],"categories_segments":[],"categories_sizes":[],"default_left":[0,0,0,0,0,0,0,0,0,0,0,0,0,0,0,0,0,0,0,0,0,0,0,0,0,0,0,0,0,0,0,0,0,0,0,0,0,0,0,0,0,0,0,0,0,0,0,0,0,0,0,0,0,0,0,0,0,0,0,0,0,0,0],"id":23,"left_children":[1,3,5,7,9,11,13,15,17,19,21,23,25,27,29,31,33,35,37,39,41,43,45,47,49,51,53,55,57,59,61,-1,-1,-1,-1,-1,-1,-1,-1,-1,-1,-1,-1,-1,-1,-1,-1,-1,-1,-1,-1,-1,-1,-1,-1,-1,-1,-1,-1,-1,-1,-1,-1],"loss_changes":[9.988626E3,3.0941738E3,1.7134263E3,2.9807368E3,4.6004376E2,1.2463478E3,6.011802E2,2.2655088E3,3.5182776E2,3.719148E2,7.639404E1,4.8183887E2,2.722174E3,4.8997192E2,1.1936157E2,1.9191748E3,5.287617E2,3.8834186E2,1.26975525E2,2.3998132E2,1.5541425E2,7.48963E1,3.517468E1,9.251649E2,1.4473743E2,5.0290204E2,2.8557275E3,4.4488953E2,1.5339624E2,5.772046E1,9.843567E1,0E0,0E0,0E0,0E0,0E0,0E0,0E0,0E0,0E0,0E0,0E0,0E0,0E0,0E0,0E0,0E0,0E0,0E0,0E0,0E0,0E0,0E0,0E0,0E0,0E0,0E0,0E0,0E0,0E0,0E0,0E0,0E0],"parents":[2147483647,0,0,1,1,2,2,3,3,4,4,5,5,6,6,7,7,8,8,9,9,10,10,11,11,12,12,13,13,14,14,15,15,16,16,17,17,18,18,19,19,20,20,21,21,22,22,23,23,24,24,25,25,26,26,27,27,28,28,29,29,30,30],"right_children":[2,4,6,8,10,12,14,16,18,20,22,24,26,28,30,32,34,36,38,40,42,44,46,48,50,52,54,56,58,60,62,-1,-1,-1,-1,-1,-1,-1,-1,-1,-1,-1,-1,-1,-1,-1,-1,-1,-1,-1,-1,-1,-1,-1,-1,-1,-1,-1,-1,-1,-1,-1,-1],"split_conditions":[4.1359675E-1,6.5570825E-1,5.0599796E-1,6.528965E-1,9.2532836E-2,5.064842E-1,7.058975E-1,1E0,7.463002E-1,7.135826E-1,2.8809E0,4.7045612E-1,5.06365E-1,6.6585493E-1,2.997E4,8.370882E-1,2E0,9.225E3,2.8371188E-1,6.577104E-1,2.7933532E-1,2.6064E5,3.3E0,4.6702772E-1,2E0,6.528965E-1,5.057637E-1,9.225E3,2.39625E4,3.2420702E-2,4.16295E4,2.0181281E-2,4.89391E-2,-1.5696602E-2,7.2678174E-3,3.4270694E-3,-2.5760157E-2,-2.3750827E-2,-4.956007E-2,-3.5095008E-3,-4.8200373E-2,-1.7258348E-2,-4.211181E-2,-5.9281956E-2,-1.07742146E-1,2.186998E-2,-5.9415277E-2,-2.5972048E-2,2.5362203E-2,-6.705885E-2,-3.5587005E-2,-1.0088991E-2,-4.185251E-2,-5.6748833E-3,6.413195E-2,-9.197348E-3,-2.7306506E-2,-4.300982E-2,-2.6689112E-2,-3.1400375E-2,-5.1972415E-2,-2.329094E-2,-4.3759283E-2],"split_indices":[0,7,0,11,1,11,7,15,11,7,2,0,7,11,6,15,19,5,0,3,0,10,2,11,19,11,3,5,6,1,6,0,0,0,0,0,0,0,0,0,0,0,0,0,0,0,0,0,0,0,0,0,0,0,0,0,0,0,0,0,0,0,0],"split_type":[0,0,0,0,0,0,0,0,0,0,0,0,0,0,0,0,0,0,0,0,0,0,0,0,0,0,0,0,0,0,0,0,0,0,0,0,0,0,0,0,0,0,0,0,0,0,0,0,0,0,0,0,0,0,0,0,0,0,0,0,0,0,0],"sum_hessian":[1.30892484E5,8.67298E4,4.4162688E4,7.8630484E4,8.099311E3,1.9255508E4,2.490718E4,7.198508E4,6.6454067E3,7.643763E3,4.5554797E2,6.932502E3,1.2323007E4,2.000461E4,4.902571E3,5.287653E4,1.9108549E4,4.657951E3,1.9874556E3,5.1239155E3,2.5198474E3,4.0139194E2,5.415602E1,4.9495215E3,1.9829805E3,6.462515E3,5.860491E3,1.4101974E4,5.9026357E3,2.5376462E3,2.3649243E3,4.624286E4,6.6336724E3,2.96642E3,1.6142129E4,2.6719976E3,1.9859534E3,1.188473E3,7.9898254E2,4.804478E3,3.1943762E2,1.253043E3,1.2668044E3,2.8787125E2,1.135207E2,3.3418E1,2.0738022E1,3.8100803E3,1.1394413E3,4.8540726E2,1.4975731E3,4.7771055E3,1.6854094E3,2.9771804E3,2.883311E3,8.423854E3,5.6781206E3,2.5153281E3,3.3873076E3,4.1306436E2,2.1245818E3,1.2467087E3,1.1182157E3],"tree_param":{"num_deleted":"0","num_feature":"24","num_nodes":"63","size_leaf_vector":"1"}},{"base_weights":[4.7651947E-2,2.997185E-1,-2.3703554E-1,1.15942545E-1,4.8795116E-1,-7.281522E-2,-4.7454762E-1,-2.5413743E-1,1.9112325E-1,5.518005E-2,3.3678398E-1,6.9647054E-3,-7.057395E-1,-3.818119E-1,-7.2752947E-1,-6.110907E-1,-1.1189166E-1,7.4734306E-1,7.936944E-2,-1.24024406E-1,5.0411105E-1,4.1486904E-2,-1.4832236E0,-1.0112361E0,-5.4291415E-1,-2.4518141E-1,-5.7201505E-1,-6.615103E-1,-1.0458893E0,-2.6610235E-2,-1.0319705E-1,-4.6442212E-5,-3.1390592E-2,4.274409E-2,2.5419036E-3,1.23508265E-2,-5.2194847E-3,-9.0578804E-4,-4.2776305E-2,5.655114E-2,1.6489068E-2,-2.1385847E-2,7.3775E-3,-6.593661E-2,-1.1800174E-1,-4.6055876E-2,-9.458957E-2,-4.6890255E-2,-2.0105043E-2,-6.9812196E-3,-3.631927E-2,-3.664772E-2,-2.0200707E-2,-4.3147366E-2,-2.6258454E-2,-5.8422096E-2,-3.1018479E-2],"categories":[],"categories_nodes":[],"categories_segments":[],"categories_sizes":[],"default_left":[0,0,0,0,0,0,0,0,0,0,0,0,0,0,0,0,0,0,0,0,0,0,0,0,0,0,0,0,0,0,0,0,0,0,0,0,0,0,0,0,0,0,0,0,0,0,0,0,0,0,0,0,0,0,0,0,0],"id":24,"left_children":[1,3,5,7,9,11,13,15,17,-1,19,21,23,25,27,29,31,33,35,37,39,41,43,45,47,49,51,53,55,-1,-1,-1,-1,-1,-1,-1,-1,-1,-1,-1,-1,-1,-1,-1,-1,-1,-1,-1,-1,-1,-1,-1,-1,-1,-1,-1,-1],"loss_changes":[9.329991E3,2.3854126E3,2.3814658E3,9.708948E2,3.170022E3,1.822837E3,5.8526904E2,2.9910492E2,1.8027386E3,0E0,2.1090474E3,1.6493502E3,2.004596E2,4.7454785E2,1.3999951E2,1.9129956E2,2.4126526E2,3.6338525E2,7.440557E2,5.64524E2,2.1926133E3,1.5594369E3,1.0158447E2,1.0965527E2,1.463211E2,5.3993365E2,2.0614453E2,1.5188794E2,5.9141357E1,0E0,0E0,0E0,0E0,0E0,0E0,0E0,0E0,0E0,0E0,0E0,0E0,0E0,0E0,0E0,0E0,0E0,0E0,0E0,0E0,0E0,0E0,0E0,0E0,0E0,0E0,0E0,0E0],"parents":[2147483647,0,0,1,1,2,2,3,3,4,4,5,5,6,6,7,7,8,8,10,10,11,11,12,12,13,13,14,14,15,15,16,16,17,17,18,18,19,19,20,20,21,21,22,22,23,23,24,24,25,25,26,26,27,27,28,28],"right_children":[2,4,6,8,10,12,14,16,18,-1,20,22,24,26,28,30,32,34,36,38,40,42,44,46,48,50,52,54,56,-1,-1,-1,-1,-1,-1,-1,-1,-1,-1,-1,-1,-1,-1,-1,-1,-1,-1,-1,-1,-1,-1,-1,-1,-1,-1,-1,-1],"split_conditions":[3.376727E-1,3.3900023E-2,5.0599796E-1,2E0,1E0,3E0,6.801388E-1,3.3512467E-1,4E0,5.518005E-2,1.0279689E0,5E0,1.5033333E-1,9.225E3,7.9813725E-1,7.0558655E-1,3E0,3E0,1.18732944E-1,5.7796913E-1,2E0,2E0,5.431857E-1,6.441851E-1,2.6923078E-1,5.3527623E-1,1.6600849E-1,3.16E0,3.3512467E-1,-2.6610235E-2,-1.0319705E-1,-4.6442212E-5,-3.1390592E-2,4.274409E-2,2.5419036E-3,1.23508265E-2,-5.2194847E-3,-9.0578804E-4,-4.2776305E-2,5.655114E-2,1.6489068E-2,-2.1385847E-2,7.3775E-3,-6.593661E-2,-1.1800174E-1,-4.6055876E-2,-9.458957E-2,-4.6890255E-2,-2.0105043E-2,-6.9812196E-3,-3.631927E-2,-3.664772E-2,-2.0200707E-2,-4.3147366E-2,-2.6258454E-2,-5.8422096E-2,-3.1018479E-2],"split_indices":[0,18,0,19,18,20,11,14,19,0,18,23,4,5,11,3,23,23,8,11,18,17,3,3,14,0,4,2,14,0,0,0,0,0,0,0,0,0,0,0,0,0,0,0,0,0,0,0,0,0,0,0,0,0,0,0,0],"split_type":[0,0,0,0,0,0,0,0,0,0,0,0,0,0,0,0,0,0,0,0,0,0,0,0,0,0,0,0,0,0,0,0,0,0,0,0,0,0,0,0,0,0,0,0,0,0,0,0,0,0,0,0,0,0,0,0,0],"sum_hessian":[1.3001426E5,6.8957875E4,6.1056387E4,3.4892812E4,3.406506E4,3.6098508E4,2.495788E4,5.891127E3,2.9001688E4,6.7142046E3,2.7350854E4,3.2058527E4,4.039979E3,1.8264982E4,6.692898E3,1.6777258E3,4.2134014E3,4.8511094E3,2.4150578E4,7.2859795E3,2.0064875E4,3.1333615E4,7.249128E2,1.4028015E3,2.6371775E3,1.063077E4,7.634213E3,5.545906E3,1.1469926E3,1.5926172E3,8.510867E1,3.4684233E3,7.4497797E2,4.20209E3,6.4901996E2,1.2628764E4,1.1521814E4,6.3654053E3,9.205745E2,4.3644116E3,1.5700463E4,5.776481E3,2.5557133E4,6.12509E2,1.1240382E2,1.2744198E3,1.2838167E2,6.917112E2,1.9454664E3,8.719375E3,1.9113942E3,3.8973337E3,3.736879E3,2.2364045E3,3.309501E3,8.891618E2,2.5783078E2],"tree_param":{"num_deleted":"0","num_feature":"24","num_nodes":"57","size_leaf_vector":"1"}},{"base_weights":[4.4711497E-2,2.8551233E-1,-2.2391112E-1,3.2791618E-1,-5.006489E-1,-6.132893E-1,-1.2454099E-1,4.0693933E-1,-7.515188E-2,3.4265116E-1,-6.6688967E-1,-5.607426E-1,-1.3146871E0,6.823878E-1,-2.4734937E-1,4.8444837E-1,-4.3608505E-2,-5.20641E-1,6.8108894E-2,7.947337E-1,-9.817022E-1,-7.94372E-1,1.1805846E-1,-4.3630782E-1,-8.2888186E-1,-1.2001176E0,-1.875541E0,3.7963757E-1,9.6854156E-1,-1.9490276E-2,-4.2406613E-1,2.9373527E-2,9.564998E-3,1.2798241E-2,-1.2657589E-2,-4.58071E-2,-1.677239E-2,5.5784094E-3,-5.9161533E-2,-1.6015245E-2,5.393025E-2,-1.6904438E-1,-3.6116105E-2,-2.5659192E-2,-5.5399414E-2,4.724384E-2,-2.7248422E-2,-3.181131E-2,-1.2726021E-2,-3.5162624E-2,-5.2630793E-2,-6.6203564E-2,-2.6206447E-2,-1.02097E-1,-3.604297E-2,-5.475537E-2,2.5845153E-2,5.1999986E-2,7.3616165E-3,1.5554589E-2,-1.3832139E-2,-4.133574E-2,-1.2882237E-2],"categories":[],"categories_nodes":[],"categories_segments":[],"categories_sizes":[],"default_left":[0,0,0,0,0,0,0,0,0,0,0,0,0,0,0,0,0,0,0,0,0,0,0,0,0,0,0,0,0,0,0,0,0,0,0,0,0,0,0,0,0,0,0,0,0,0,0,0,0,0,0,0,0,0,0,0,0,0,0,0,0,0,0],"id":25,"left_children":[1,3,5,7,9,11,13,15,17,19,21,23,25,27,29,31,33,35,37,39,41,43,45,47,49,51,53,55,57,59,61,-1,-1,-1,-1,-1,-1,-1,-1,-1,-1,-1,-1,-1,-1,-1,-1,-1,-1,-1,-1,-1,-1,-1,-1,-1,-1,-1,-1,-1,-1,-1,-1],"loss_changes":[8.362912E3,2.2728374E3,2.3645588E3,2.0603853E3,4.8940735E2,4.5720215E2,4.82517E3,1.8886777E3,6.7679333E2,3.4519534E2,2.9180127E2,3.85375E2,5.334619E1,